{"learner":{"attributes":{"scikit_learn":"{\"_estimator_type\": \"regressor\"}"},"feature_names":[],"feature_types":[],"gradient_booster":{"model":{"gbtree_model_param":{"num_parallel_tree":"1","num_trees":"100"},"iteration_indptr":[0,1,2,3,4,5,6,7,8,9,10,11,12,13,14,15,16,17,18,19,20,21,22,23,24,25,26,27,28,29,30,31,32,33,34,35,36,37,38,39,40,41,42,43,44,45,46,47,48,49,50,51,52,53,54,55,56,57,58,59,60,61,62,63,64,65,66,67,68,69,70,71,72,73,74,75,76,77,78,79,80,81,82,83,84,85,86,87,88,89,90,91,92,93,94,95,96,97,98,99,100],"tree_info":[0,0,0,0,0,0,0,0,0,0,0,0,0,0,0,0,0,0,0,0,0,0,0,0,0,0,0,0,0,0,0,0,0,0,0,0,0,0,0,0,0,0,0,0,0,0,0,0,0,0,0,0,0,0,0,0,0,0,0,0,0,0,0,0,0,0,0,0,0,0,0,0,0,0,0,0,0,0,0,0,0,0,0,0,0,0,0,0,0,0,0,0,0,0,0,0,0,0,0,0],"trees":[{"base_weights":[-7.069216E-3,-2.307003E4,1.2357507E5,-4.049283E4,2.6711484E4,9.325922E4,2.0421706E5,-5.974146E4,-2.3458035E4,8.112107E3,4.5493797E4,6.8043055E4,1.19814516E5,9.220736E4,2.2398417E5,-8.348459E4,-5.290088E4,-4.265731E4,-7.6815493E3,-2.5011895E3,2.0456879E4,3.9794117E4,8.5397016E4,2.2407752E4,7.850684E4,1.0439664E5,4.848576E4,1.0352022E5,-3.1381807E3,3.4673234E5,2.0354858E5,-9.885926E4,-7.4350086E4,-2.1124004E4,-4.766587E4,-5.214E4,-2.0366125E4,-2.0375158E4,5.5510713E3,-2.3191754E4,2.0679915E3,-1.9361031E4,2.41999E4,3.1209703E4,7.3323734E4,6.0273906E4,1.06614484E5,-4.7077363E3,4.4570918E4,3.362589E4,8.69226E4,4.837524E4,1.07426125E5,8.71182E3,3.2570781E4,3.061182E4,1.1257892E5,2.0789031E5,5.743196E2,-3.188503E4,-1.714831E4,-2.3065602E4,-1.1235302E4,-1.5502891E4,-9.165978E3,-1.9857936E4,-1.2784573E4,-1.24736875E4,-3.8687542E3,-1.446805E4,-5.1198896E3,-1.137357E3,7.913641E3,1.2219922E2,-1.0186692E4,-3.5976765E3,4.389941E3,-8.682271E3,-1.4822708E3,3.189308E3,9.647132E3,-5.851167E3,1.0262314E4,8.404319E3,2.5322234E4,8.6697E3,2.448095E4,1.240576E4,3.580598E4,-6.732271E3,2.3696995E3,4.5927295E3,1.6477406E4,1.2993005E4,3.027293E2,2.2430578E4,3.3980082E4,1.6634805E4,3.0118196E3,1.6608912E4,3.3077227E4,4.91035E4,6.913999E4],"categories":[],"categories_nodes":[],"categories_segments":[],"categories_sizes":[],"default_left":[0,0,0,0,0,0,0,0,0,0,0,0,0,0,0,0,0,0,0,0,0,0,0,0,0,0,0,0,0,0,0,0,0,0,0,0,0,0,0,0,0,0,0,0,0,0,0,0,0,0,0,0,0,0,0,0,0,0,0,0,0,0,0,0,0,0,0,0,0,0,0,0,0,0,0,0,0,0,0,0,0,0,0,0,0,0,0,0,0,0,0,0,0,0,0,0,0,0,0,0,0,0,0],"id":0,"left_children":[1,3,5,7,9,11,13,15,17,19,21,23,25,27,29,31,33,35,37,39,41,43,45,47,49,51,-1,53,-1,55,57,59,61,-1,63,65,67,69,71,73,75,77,79,81,83,85,87,89,91,93,95,97,99,-1,-1,-1,-1,101,-1,-1,-1,-1,-1,-1,-1,-1,-1,-1,-1,-1,-1,-1,-1,-1,-1,-1,-1,-1,-1,-1,-1,-1,-1,-1,-1,-1,-1,-1,-1,-1,-1,-1,-1,-1,-1,-1,-1,-1,-1,-1,-1,-1,-1],"loss_changes":[4.1679863E12,1.0696361E12,5.4324285E11,2.979682E11,1.1141952E11,1.0501371E11,1.16621574E11,6.5097826E10,1.4688028E11,2.12762E10,3.276397E10,4.073993E10,3.5335176E10,1.3859029E10,5.986163E10,5.8511196E9,2.735584E10,4.5230424E10,4.5128987E10,8.367386E9,1.1646482E10,3.8295912E10,3.7018665E9,1.1027199E10,2.4272077E10,5.325652E9,0E0,6.0778906E8,0E0,3.5959603E9,4.0747794E10,3.8311035E9,3.0141317E9,0E0,1.633321E10,1.7658577E10,1.008101E10,1.1802493E10,2.5784318E10,4.0781158E9,1.3072323E10,8.2400666E8,7.108088E9,1.7999733E10,1.1696833E10,5.0029896E9,2.546647E9,2.1892764E9,2.1888512E9,4.062544E9,1.074253E10,7.992822E8,2.4452792E9,0E0,0E0,0E0,0E0,8.192262E9,0E0,0E0,0E0,0E0,0E0,0E0,0E0,0E0,0E0,0E0,0E0,0E0,0E0,0E0,0E0,0E0,0E0,0E0,0E0,0E0,0E0,0E0,0E0,0E0,0E0,0E0,0E0,0E0,0E0,0E0,0E0,0E0,0E0,0E0,0E0,0E0,0E0,0E0,0E0,0E0,0E0,0E0,0E0,0E0,0E0],"parents":[2147483647,0,0,1,1,2,2,3,3,4,4,5,5,6,6,7,7,8,8,9,9,10,10,11,11,12,12,13,13,14,14,15,15,16,16,17,17,18,18,19,19,20,20,21,21,22,22,23,23,24,24,25,25,27,27,29,29,30,30,31,31,32,32,34,34,35,35,36,36,37,37,38,38,39,39,40,40,41,41,42,42,43,43,44,44,45,45,46,46,47,47,48,48,49,49,50,50,51,51,52,52,57,57],"right_children":[2,4,6,8,10,12,14,16,18,20,22,24,26,28,30,32,34,36,38,40,42,44,46,48,50,52,-1,54,-1,56,58,60,62,-1,64,66,68,70,72,74,76,78,80,82,84,86,88,90,92,94,96,98,100,-1,-1,-1,-1,102,-1,-1,-1,-1,-1,-1,-1,-1,-1,-1,-1,-1,-1,-1,-1,-1,-1,-1,-1,-1,-1,-1,-1,-1,-1,-1,-1,-1,-1,-1,-1,-1,-1,-1,-1,-1,-1,-1,-1,-1,-1,-1,-1,-1,-1],"split_conditions":[1.3747946E0,6.5147924E-1,2.09811E0,3.1172463E-1,-8.807793E-2,1.6503069E0,1.6503069E0,-7.951515E-1,-7.1836114E-2,-2.4542652E-1,6.637877E-1,-5.128189E-1,3.0579466E-1,2.143103E0,8.5226935E-1,2.6381257E-1,-3.666952E-1,6.004949E-1,2.9676324E-1,-8.0376786E-1,-1.3999412E0,1.6503069E0,2.1522164E0,9.5163155E-1,6.004949E-1,-1.4510427E-1,4.848576E4,6.004949E-1,-3.1381807E3,2.8214252E0,1.08913E0,9.1220975E-1,6.4459994E-2,-2.1124004E4,-2.007493E-2,-5.388019E-1,-1.5422447E-1,-5.388019E-1,1.695929E-1,-1.4993035E0,6.004949E-1,-1.6649072E0,2.9676324E-1,-1.6317865E0,6.004949E-1,9.1220975E-1,-5.388019E-1,5.210619E-1,-7.154679E-1,2.8380064E-2,1.5276563E0,1.1834768E0,2.9676324E-1,8.71182E3,3.2570781E4,3.061182E4,1.1257892E5,1.9615175E-1,5.743196E2,-3.188503E4,-1.714831E4,-2.3065602E4,-1.1235302E4,-1.5502891E4,-9.165978E3,-1.9857936E4,-1.2784573E4,-1.24736875E4,-3.8687542E3,-1.446805E4,-5.1198896E3,-1.137357E3,7.913641E3,1.2219922E2,-1.0186692E4,-3.5976765E3,4.389941E3,-8.682271E3,-1.4822708E3,3.189308E3,9.647132E3,-5.851167E3,1.0262314E4,8.404319E3,2.5322234E4,8.6697E3,2.448095E4,1.240576E4,3.580598E4,-6.732271E3,2.3696995E3,4.5927295E3,1.6477406E4,1.2993005E4,3.027293E2,2.2430578E4,3.3980082E4,1.6634805E4,3.0118196E3,1.6608912E4,3.3077227E4,4.91035E4,6.913999E4],"split_indices":[1,1,1,2,5,2,2,1,1,5,5,5,5,3,0,7,5,4,3,0,0,2,4,0,4,5,0,4,0,1,5,3,5,0,6,0,5,0,5,0,4,0,3,0,4,3,0,0,5,5,3,0,3,0,0,0,0,5,0,0,0,0,0,0,0,0,0,0,0,0,0,0,0,0,0,0,0,0,0,0,0,0,0,0,0,0,0,0,0,0,0,0,0,0,0,0,0,0,0,0,0,0,0],"split_type":[0,0,0,0,0,0,0,0,0,0,0,0,0,0,0,0,0,0,0,0,0,0,0,0,0,0,0,0,0,0,0,0,0,0,0,0,0,0,0,0,0,0,0,0,0,0,0,0,0,0,0,0,0,0,0,0,0,0,0,0,0,0,0,0,0,0,0,0,0,0,0,0,0,0,0,0,0,0,0,0,0,0,0,0,0,0,0,0,0,0,0,0,0,0,0,0,0,0,0,0,0,0,0],"sum_hessian":[1.46E3,1.231E3,2.29E2,9.12E2,3.19E2,1.68E2,6.1E1,4.27E2,4.85E2,1.61E2,1.58E2,8.8E1,8E1,1E1,5.1E1,9.3E1,3.34E2,2.18E2,2.67E2,8.7E1,7.4E1,1.4E2,1.8E1,1.7E1,7.1E1,6.1E1,1.9E1,9E0,1E0,5E0,4.6E1,3.1E1,6.2E1,7.4E1,2.6E2,1.52E2,6.6E1,1.36E2,1.31E2,1.5E1,7.2E1,6E0,6.8E1,1.13E2,2.7E1,1E1,8E0,8E0,9E0,1.2E1,5.9E1,4E0,5.7E1,1E0,8E0,1E0,4E0,4.5E1,1E0,2.5E1,6E0,5.7E1,5E0,2.09E2,5.1E1,5.9E1,9.3E1,1.6E1,5E1,1.3E1,1.23E2,9.1E1,4E1,5E0,1E1,3.4E1,3.8E1,3E0,3E0,2.6E1,4.2E1,6E0,1.07E2,6E0,2.1E1,5E0,5E0,2E0,6E0,3E0,5E0,3E0,6E0,9E0,3E0,4.3E1,1.6E1,3E0,1E0,4E0,5.3E1,1.8E1,2.7E1],"tree_param":{"num_deleted":"0","num_feature":"8","num_nodes":"103","size_leaf_vector":"1"}},{"base_weights":[2.9182416E2,-1.6212351E4,8.869552E4,-2.8554094E4,1.9050852E4,6.648992E4,1.4779312E5,-3.9479504E4,-1.2192371E4,1.1766399E4,4.6382195E4,4.8601082E4,8.53247E4,1.16617336E5,1.9229572E5,-4.352316E4,-9.350378E3,-2.3786492E4,1.1758144E2,7.37014E3,4.4346133E4,3.8299777E4,6.346089E4,1.6449182E4,5.652059E4,7.616881E4,1.3666503E5,2.2977723E4,3.7821523E4,-2.6674524E3,2.0142958E5,-5.9924504E4,-3.8041613E4,-1.5360253E4,8.875748E3,-2.8506008E4,-1.4326416E3,-1.2100961E4,7.8919487E3,-1.1168505E4,1.2460668E4,2.421785E4,6.880482E4,3.122508E4,1.7076533E4,3.1306934E4,7.8366336E4,-1.0799689E4,2.985633E4,5.2155734E4,3.4977914E4,7.068256E4,1.0610938E5,7.905836E4,5.1448258E4,2.5743826E4,6.86334E4,-1.9796867E4,-1.5163157E4,-1.2318853E4,-6.708414E3,-5.200046E3,1.759665E3,5.685643E3,-3.8269001E3,-1.2514272E4,-6.728406E3,-6.283195E3,1.0489078E3,-4.4113975E3,7.4064116E3,1.1411201E3,1.2288618E4,-4.5182456E3,3.1986624E3,-4.131521E3,5.2448027E3,-1.4786138E3,9.869247E3,1.0650953E3,2.4103957E4,2.3206548E3,9.921052E3,2.883709E3,1.2720361E4,3.2894954E3,2.492081E4,2.7128696E3,-4.6841816E3,1.0490832E4,2.8828442E3,1.275458E4,2.4249016E4,1.2906549E4,2.1851834E4,3.348686E4,9.300234E3,6.838955E3,2.5725428E4],"categories":[],"categories_nodes":[],"categories_segments":[],"categories_sizes":[],"default_left":[0,0,0,0,0,0,0,0,0,0,0,0,0,0,0,0,0,0,0,0,0,0,0,0,0,0,0,0,0,0,0,0,0,0,0,0,0,0,0,0,0,0,0,0,0,0,0,0,0,0,0,0,0,0,0,0,0,0,0,0,0,0,0,0,0,0,0,0,0,0,0,0,0,0,0,0,0,0,0,0,0,0,0,0,0,0,0,0,0,0,0,0,0,0,0,0,0,0,0],"id":1,"left_children":[1,3,5,7,9,11,13,15,17,19,21,23,25,27,29,31,33,35,37,39,41,43,45,47,49,51,53,-1,-1,-1,55,57,59,61,63,65,67,69,71,73,75,77,79,81,-1,83,85,87,89,91,-1,93,95,97,-1,-1,-1,-1,-1,-1,-1,-1,-1,-1,-1,-1,-1,-1,-1,-1,-1,-1,-1,-1,-1,-1,-1,-1,-1,-1,-1,-1,-1,-1,-1,-1,-1,-1,-1,-1,-1,-1,-1,-1,-1,-1,-1,-1,-1],"loss_changes":[2.133081E12,5.367219E11,2.9200155E11,1.6272523E11,6.3164277E10,5.2794753E10,6.3594037E10,6.6235073E10,5.2382167E10,3.6053316E10,6.817956E9,2.1732114E10,2.766576E10,5.101912E9,4.5893812E10,4.1054437E10,7.365759E9,1.989854E10,1.7098966E10,2.1372752E10,1.3103034E10,4.5463716E9,7.1319634E9,7.2637025E9,1.2535726E10,4.1624863E9,8.5122417E9,0E0,0E0,0E0,5.3092483E10,3.4350367E9,1.6325706E10,2.195844E9,3.9473075E9,1.1588026E10,3.3430556E9,7.0681487E9,1.4715942E10,4.3242086E9,2.3558627E10,4.715813E9,9.505665E9,1.3477806E9,0E0,1.5179075E9,3.210027E9,8.0988525E8,1.00977664E9,1.5360999E10,0E0,6.249513E8,2.6658406E8,3.04554E8,0E0,0E0,0E0,0E0,0E0,0E0,0E0,0E0,0E0,0E0,0E0,0E0,0E0,0E0,0E0,0E0,0E0,0E0,0E0,0E0,0E0,0E0,0E0,0E0,0E0,0E0,0E0,0E0,0E0,0E0,0E0,0E0,0E0,0E0,0E0,0E0,0E0,0E0,0E0,0E0,0E0,0E0,0E0,0E0,0E0],"parents":[2147483647,0,0,1,1,2,2,3,3,4,4,5,5,6,6,7,7,8,8,9,9,10,10,11,11,12,12,13,13,14,14,15,15,16,16,17,17,18,18,19,19,20,20,21,21,22,22,23,23,24,24,25,25,26,26,30,30,31,31,32,32,33,33,34,34,35,35,36,36,37,37,38,38,39,39,40,40,41,41,42,42,43,43,45,45,46,46,47,47,48,48,49,49,51,51,52,52,53,53],"right_children":[2,4,6,8,10,12,14,16,18,20,22,24,26,28,30,32,34,36,38,40,42,44,46,48,50,52,54,-1,-1,-1,56,58,60,62,64,66,68,70,72,74,76,78,80,82,-1,84,86,88,90,92,-1,94,96,98,-1,-1,-1,-1,-1,-1,-1,-1,-1,-1,-1,-1,-1,-1,-1,-1,-1,-1,-1,-1,-1,-1,-1,-1,-1,-1,-1,-1,-1,-1,-1,-1,-1,-1,-1,-1,-1,-1,-1,-1,-1,-1,-1,-1,-1],"split_conditions":[1.3747946E0,6.5147924E-1,2.09811E0,6.004949E-1,1.695929E-1,1.6503069E0,2.143103E0,6.866656E-1,-4.889112E-2,1.6503069E0,2.1522164E0,6.004949E-1,4.0902334E-1,1.6503069E0,1.6503069E0,-7.951515E-1,2.9676324E-1,3.8857892E-1,-7.1836114E-2,2.5609595E-1,9.1220975E-1,1.5276563E0,3.7945783E-1,9.5163155E-1,1.1834768E0,2.143103E0,9.1220975E-1,2.2977723E4,3.7821523E4,-2.6674524E3,1.418314E-1,-6.7128485E-1,2.5273181E-2,1.2165976E0,1.0841146E0,-3.1868327E-1,-9.341298E-1,2.4186754E0,1.5276563E0,1.5276563E0,-6.401009E-1,-6.5804064E-1,6.004949E-1,1.8985446E-1,1.7076533E4,9.1220975E-1,-1.6649072E0,-9.341298E-1,-1.3397962E-1,1.5276563E0,3.4977914E4,6.004949E-1,1.1834768E0,4.351813E-1,5.1448258E4,2.5743826E4,6.86334E4,-1.9796867E4,-1.5163157E4,-1.2318853E4,-6.708414E3,-5.200046E3,1.759665E3,5.685643E3,-3.8269001E3,-1.2514272E4,-6.728406E3,-6.283195E3,1.0489078E3,-4.4113975E3,7.4064116E3,1.1411201E3,1.2288618E4,-4.5182456E3,3.1986624E3,-4.131521E3,5.2448027E3,-1.4786138E3,9.869247E3,1.0650953E3,2.4103957E4,2.3206548E3,9.921052E3,2.883709E3,1.2720361E4,3.2894954E3,2.492081E4,2.7128696E3,-4.6841816E3,1.0490832E4,2.8828442E3,1.275458E4,2.4249016E4,1.2906549E4,2.1851834E4,3.348686E4,9.300234E3,6.838955E3,2.5725428E4],"split_indices":[1,1,1,4,5,2,3,0,5,2,4,4,5,2,2,1,3,0,1,0,3,3,5,0,0,3,3,0,0,0,5,0,5,0,0,3,3,5,3,3,5,5,4,0,0,3,0,3,5,3,0,4,0,5,0,0,0,0,0,0,0,0,0,0,0,0,0,0,0,0,0,0,0,0,0,0,0,0,0,0,0,0,0,0,0,0,0,0,0,0,0,0,0,0,0,0,0,0,0],"split_type":[0,0,0,0,0,0,0,0,0,0,0,0,0,0,0,0,0,0,0,0,0,0,0,0,0,0,0,0,0,0,0,0,0,0,0,0,0,0,0,0,0,0,0,0,0,0,0,0,0,0,0,0,0,0,0,0,0,0,0,0,0,0,0,0,0,0,0,0,0,0,0,0,0,0,0,0,0,0,0,0,0,0,0,0,0,0,0,0,0,0,0,0,0,0,0,0,0,0,0],"sum_hessian":[1.46E3,1.231E3,2.29E2,9.12E2,3.19E2,1.68E2,6.1E1,5.46E2,3.66E2,2.53E2,6.6E1,8.8E1,8E1,3.8E1,2.3E1,4.81E2,6.5E1,1.88E2,1.78E2,2.24E2,2.9E1,4.7E1,1.9E1,1.8E1,7E1,7E1,1E1,9E0,2.9E1,1E0,2.2E1,1.18E2,3.63E2,4.9E1,1.6E1,1.55E2,3.3E1,6.9E1,1.09E2,4.8E1,1.76E2,1.7E1,1.2E1,3.6E1,1.1E1,7E0,1.2E1,6E0,1.2E1,6.7E1,3E0,6.2E1,8E0,5E0,5E0,5E0,1.7E1,6.8E1,5E1,3.03E2,6E1,4.5E1,4E0,1.1E1,5E0,4.7E1,1.08E2,6E0,2.7E1,6.5E1,4E0,9.8E1,1.1E1,4.1E1,7E0,2.8E1,1.48E2,4E0,1.3E1,2E0,1E1,3E0,3.3E1,3E0,4E0,1E0,1.1E1,1E0,5E0,9E0,3E0,5.2E1,1.5E1,6E0,5.6E1,7E0,1E0,1E0,4E0],"tree_param":{"num_deleted":"0","num_feature":"8","num_nodes":"99","size_leaf_vector":"1"}},{"base_weights":[5.056582E2,-1.1313851E4,6.3814918E4,-2.0057549E4,1.3668368E4,5.140909E4,1.2145737E5,-3.0669916E4,-1.0670406E4,3.3011348E3,2.4145246E4,4.297179E4,8.3191086E4,2.1500328E4,1.4846442E5,-4.870026E4,-2.7424404E4,-2.0146865E4,-2.8867698E3,-1.0780945E4,6.452723E3,1.9449621E4,4.0225473E4,3.1019945E4,5.598678E4,7.2318734E4,3.341906E4,1.5528025E5,-2.2673345E3,-5.6593555E4,-2.9842875E4,-4.4709676E4,-2.4213438E4,-4.3688273E4,-1.7691988E4,-1.7680877E4,1.8411895E3,2.1724075E3,-1.9537203E4,-1.3005752E4,9.611491E3,-8.372855E2,2.6439064E4,4.8992797E4,1.9338693E4,-2.0532197E4,3.392688E4,4.1014707E4,6.830351E4,6.1754117E4,9.971824E4,8.612971E4,1.6894462E5,-1.8044736E4,-7.215042E3,-9.21886E3,-1.8164602E3,-9.86746E3,-1.4584394E4,-7.9116616E3,-9.557592E2,-1.4428068E4,-6.2561123E3,-5.7197646E3,5.29939E3,-7.729012E3,-3.005078E3,-4.5096146E1,8.083271E3,2.0187296E3,-2.9287266E3,-3.095566E3,-8.282805E3,-7.0883535E3,-1.4521633E3,1.8883632E3,6.781682E3,-4.37221E3,3.015475E3,7.1015146E3,1.8786107E4,1.5317605E4,5.2536143E3,2.4689011E3,1.4976764E4,-9.116598E3,2.8340461E3,2.2083062E3,1.1317611E4,1.8270871E4,8.808501E3,1.7755291E4,2.6375662E4,1.9937566E4,1.0734096E4,4.1493447E3,3.3518273E4,2.8180326E4,7.065928E3,7.789495E4,4.0712785E4],"categories":[],"categories_nodes":[],"categories_segments":[],"categories_sizes":[],"default_left":[0,0,0,0,0,0,0,0,0,0,0,0,0,0,0,0,0,0,0,0,0,0,0,0,0,0,0,0,0,0,0,0,0,0,0,0,0,0,0,0,0,0,0,0,0,0,0,0,0,0,0,0,0,0,0,0,0,0,0,0,0,0,0,0,0,0,0,0,0,0,0,0,0,0,0,0,0,0,0,0,0,0,0,0,0,0,0,0,0,0,0,0,0,0,0,0,0,0,0,0,0],"id":2,"left_children":[1,3,5,7,9,11,13,15,17,19,21,23,25,-1,27,29,31,33,35,37,39,41,43,45,47,49,-1,51,-1,53,55,57,59,61,63,65,67,69,71,73,75,77,79,81,83,85,87,89,91,93,95,97,99,-1,-1,-1,-1,-1,-1,-1,-1,-1,-1,-1,-1,-1,-1,-1,-1,-1,-1,-1,-1,-1,-1,-1,-1,-1,-1,-1,-1,-1,-1,-1,-1,-1,-1,-1,-1,-1,-1,-1,-1,-1,-1,-1,-1,-1,-1,-1,-1],"loss_changes":[1.09396545E12,2.6938851E11,1.5822953E11,9.062564E10,3.467748E10,4.7642608E10,4.3146805E10,2.3710007E10,3.578983E10,7.2592753E9,1.1223196E10,2.2062957E10,3.9037665E9,0E0,2.7759084E10,7.8372864E9,1.9175834E10,1.1883348E10,1.8778065E10,3.4451292E9,8.299824E9,1.7746412E10,5.4617825E9,1.2985E10,1.0475848E10,2.8154102E9,0E0,8.1263985E9,0E0,3.64467E9,2.5686426E8,9.8535014E8,1.3988004E10,1.0089267E9,1.0052018E10,3.768279E9,1.0202615E10,7.726756E8,1.05456896E9,1.5335286E9,4.814299E9,5.082554E9,7.829418E9,6.667141E8,3.6662344E9,1.7645108E9,7.593304E9,6.323319E9,1.5938847E9,6.768968E8,5.674803E9,7.179059E8,2.2040904E10,0E0,0E0,0E0,0E0,0E0,0E0,0E0,0E0,0E0,0E0,0E0,0E0,0E0,0E0,0E0,0E0,0E0,0E0,0E0,0E0,0E0,0E0,0E0,0E0,0E0,0E0,0E0,0E0,0E0,0E0,0E0,0E0,0E0,0E0,0E0,0E0,0E0,0E0,0E0,0E0,0E0,0E0,0E0,0E0,0E0,0E0,0E0,0E0],"parents":[2147483647,0,0,1,1,2,2,3,3,4,4,5,5,6,6,7,7,8,8,9,9,10,10,11,11,12,12,14,14,15,15,16,16,17,17,18,18,19,19,20,20,21,21,22,22,23,23,24,24,25,25,27,27,29,29,30,30,31,31,32,32,33,33,34,34,35,35,36,36,37,37,38,38,39,39,40,40,41,41,42,42,43,43,44,44,45,45,46,46,47,47,48,48,49,49,50,50,51,51,52,52],"right_children":[2,4,6,8,10,12,14,16,18,20,22,24,26,-1,28,30,32,34,36,38,40,42,44,46,48,50,-1,52,-1,54,56,58,60,62,64,66,68,70,72,74,76,78,80,82,84,86,88,90,92,94,96,98,100,-1,-1,-1,-1,-1,-1,-1,-1,-1,-1,-1,-1,-1,-1,-1,-1,-1,-1,-1,-1,-1,-1,-1,-1,-1,-1,-1,-1,-1,-1,-1,-1,-1,-1,-1,-1,-1,-1,-1,-1,-1,-1,-1,-1,-1,-1,-1,-1],"split_conditions":[1.3747946E0,6.5147924E-1,2.143103E0,3.1172463E-1,-8.807793E-2,2.09811E0,1.7430334E-1,2.6381257E-1,-7.1836114E-2,-6.796886E-1,3.7945783E-1,1.6503069E0,2.8214252E0,2.1500328E4,3.7039378E0,2.9676324E-1,-4.65915E-1,2.6381257E-1,-2.6787627E-1,-2.007493E-2,-1.1349753E0,2.892167E-1,7.8602785E-1,-1.4993035E0,6.4459994E-2,1.2165976E0,3.341906E4,7.529071E-1,-2.2673345E3,1.334676E-2,-1.7447373E-1,-1.2343376E0,9.1220975E-1,-3.0951377E-2,1.8221539E0,3.2233742E-1,1.5276563E0,1.150356E0,1.0841146E0,-3.2971326E-1,9.1220975E-1,3.359161E-2,2.143103E0,2.7585492E0,1.5276563E0,7.4997866E-1,-5.729521E-1,1.1172353E0,4.0902334E-1,1.1834768E0,1.6503069E0,7.1978635E-1,8.5226935E-1,-1.8044736E4,-7.215042E3,-9.21886E3,-1.8164602E3,-9.86746E3,-1.4584394E4,-7.9116616E3,-9.557592E2,-1.4428068E4,-6.2561123E3,-5.7197646E3,5.29939E3,-7.729012E3,-3.005078E3,-4.5096146E1,8.083271E3,2.0187296E3,-2.9287266E3,-3.095566E3,-8.282805E3,-7.0883535E3,-1.4521633E3,1.8883632E3,6.781682E3,-4.37221E3,3.015475E3,7.1015146E3,1.8786107E4,1.5317605E4,5.2536143E3,2.4689011E3,1.4976764E4,-9.116598E3,2.8340461E3,2.2083062E3,1.1317611E4,1.8270871E4,8.808501E3,1.7755291E4,2.6375662E4,1.9937566E4,1.0734096E4,4.1493447E3,3.3518273E4,2.8180326E4,7.065928E3,7.789495E4,4.0712785E4],"split_indices":[1,1,3,2,5,1,5,7,1,5,5,2,1,0,4,3,5,7,5,6,0,0,0,0,5,0,0,0,0,5,0,0,3,5,5,0,3,0,0,5,3,5,3,3,3,5,5,0,5,0,2,0,0,0,0,0,0,0,0,0,0,0,0,0,0,0,0,0,0,0,0,0,0,0,0,0,0,0,0,0,0,0,0,0,0,0,0,0,0,0,0,0,0,0,0,0,0,0,0,0,0],"split_type":[0,0,0,0,0,0,0,0,0,0,0,0,0,0,0,0,0,0,0,0,0,0,0,0,0,0,0,0,0,0,0,0,0,0,0,0,0,0,0,0,0,0,0,0,0,0,0,0,0,0,0,0,0,0,0,0,0,0,0,0,0,0,0,0,0,0,0,0,0,0,0,0,0,0,0,0,0,0,0,0,0,0,0,0,0,0,0,0,0,0,0,0,0,0,0,0,0,0,0,0,0],"sum_hessian":[1.46E3,1.231E3,2.29E2,9.12E2,3.19E2,1.9E2,3.9E1,4.27E2,4.85E2,1.61E2,1.58E2,1.52E2,3.8E1,1.5E1,2.4E1,6.3E1,3.64E2,2.18E2,2.67E2,2.9E1,1.32E2,1.24E2,3.4E1,8.1E1,7.1E1,3E1,8E0,2.3E1,1E0,4.3E1,2E1,5.5E1,3.09E2,1.9E1,1.99E2,6.4E1,2.03E2,1.2E1,1.7E1,1.8E1,1.14E2,3.2E1,9.2E1,2.3E1,1.1E1,4E0,7.7E1,3.4E1,3.7E1,2.4E1,6E0,5E0,1.8E1,3.8E1,5E0,1.9E1,1E0,1.6E1,3.9E1,2.8E2,2.9E1,1.5E1,4E0,1.92E2,7E0,3E1,3.4E1,1.89E2,1.4E1,9E0,3E0,9E0,8E0,7E0,1.1E1,9.2E1,2.2E1,1.4E1,1.8E1,8.7E1,5E0,2.1E1,2E0,9E0,2E0,3E0,1E0,1E1,6.7E1,1.1E1,2.3E1,2.8E1,9E0,1.9E1,5E0,1E0,5E0,4E0,1E0,3E0,1.5E1],"tree_param":{"num_deleted":"0","num_feature":"8","num_nodes":"101","size_leaf_vector":"1"}},{"base_weights":[5.663297E2,-7.9546206E3,4.6206523E4,-1.999605E4,1.4089033E3,3.692988E4,8.934733E4,-2.9637678E4,-1.55501455E4,-6.786345E3,9.164044E3,3.059302E4,6.084295E4,5.281765E4,1.1149971E5,-3.544775E4,-1.8491916E4,-1.7818328E4,-2.4734302E3,-1.2858858E4,-1.09671684E2,-1.2669701E4,1.18046455E4,1.8090252E4,3.8464805E4,5.047788E3,6.2767492E4,3.447518E4,5.9688527E4,1.1690615E5,-1.9272352E3,-3.6292027E4,8.486806E3,-2.3923377E4,-4.4894307E3,-2.3078988E4,-1.2925691E4,-6.1135596E3,1.1383173E4,-1.5851604E4,4.3546035E3,-1.5323E4,2.390444E3,-2.1531791E4,-2.2079333E3,8.957252E3,3.2624652E4,1.2078223E4,4.1632848E4,1.1049796E4,4.1634688E4,5.4730273E4,2.450731E4,4.4545835E3,1.3677751E4,2.1549129E4,9.2256455E3,8.500087E4,1.4988292E5,-8.0505864E3,-1.2066385E4,-8.486246E3,-6.172559E3,-8.1508306E3,5.573597E2,-7.6788643E3,-3.4819958E3,-6.850753E3,-3.0017046E3,-2.6623496E3,2.3295283E3,-4.463738E3,4.536991E3,-6.288056E3,-3.200954E3,-9.2598065E2,5.873991E3,-6.1228047E3,2.1209165E3,5.771664E3,3.2581696E2,-9.067674E3,-5.077765E3,-6.0561025E3,7.2744934E2,-1.5904755E2,4.796471E3,8.621944E3,2.0510352E4,4.5105493E3,-7.705613E3,2.4968832E4,5.555881E3,-1.6812478E3,6.410081E3,-1.5265605E3,1.3035125E4,1.4344823E4,2.9614389E4,-3.9759378E2,2.4021562E3,1.8751365E4,4.3995766E4,1.7461205E4,4.9658145E4],"categories":[],"categories_nodes":[],"categories_segments":[],"categories_sizes":[],"default_left":[0,0,0,0,0,0,0,0,0,0,0,0,0,0,0,0,0,0,0,0,0,0,0,0,0,0,0,0,0,0,0,0,0,0,0,0,0,0,0,0,0,0,0,0,0,0,0,0,0,0,0,0,0,0,0,0,0,0,0,0,0,0,0,0,0,0,0,0,0,0,0,0,0,0,0,0,0,0,0,0,0,0,0,0,0,0,0,0,0,0,0,0,0,0,0,0,0,0,0,0,0,0,0,0,0],"id":3,"left_children":[1,3,5,7,9,11,13,15,17,19,21,23,25,27,29,31,33,35,37,39,41,43,45,47,49,-1,51,53,55,57,-1,59,-1,61,63,65,67,69,71,73,75,77,79,81,83,85,87,89,91,93,95,97,-1,99,-1,-1,-1,101,103,-1,-1,-1,-1,-1,-1,-1,-1,-1,-1,-1,-1,-1,-1,-1,-1,-1,-1,-1,-1,-1,-1,-1,-1,-1,-1,-1,-1,-1,-1,-1,-1,-1,-1,-1,-1,-1,-1,-1,-1,-1,-1,-1,-1,-1,-1],"loss_changes":[5.685472E11,1.3893645E11,8.8746885E10,2.2643786E10,4.416957E10,2.7081605E10,2.6479624E10,1.0288546E10,1.0959921E10,1.3702524E10,2.0732121E10,1.436228E10,2.2476718E9,8.472166E7,1.6052158E10,6.9459804E9,4.4558356E9,7.83505E9,2.894222E9,9.187273E9,6.1983124E9,3.5682708E9,1.861897E10,8.1310106E9,7.6218696E9,0E0,1.1564483E9,2.1331456E9,1.6558326E9,1.1458871E10,0E0,2.970878E9,0E0,4.628685E7,2.6416978E9,4.0635597E9,4.575179E9,1.7932261E9,1.4037144E9,3.7735424E9,3.1194028E9,2.7639224E9,3.05587E9,3.2930406E8,1.6315137E9,1.881952E10,3.3116692E9,5.9694177E9,9.995813E9,2.0097768E9,7.262552E9,4.0992358E9,0E0,7.221307E7,0E0,0E0,0E0,1.025065E10,4.708106E9,0E0,0E0,0E0,0E0,0E0,0E0,0E0,0E0,0E0,0E0,0E0,0E0,0E0,0E0,0E0,0E0,0E0,0E0,0E0,0E0,0E0,0E0,0E0,0E0,0E0,0E0,0E0,0E0,0E0,0E0,0E0,0E0,0E0,0E0,0E0,0E0,0E0,0E0,0E0,0E0,0E0,0E0,0E0,0E0,0E0,0E0],"parents":[2147483647,0,0,1,1,2,2,3,3,4,4,5,5,6,6,7,7,8,8,9,9,10,10,11,11,12,12,13,13,14,14,15,15,16,16,17,17,18,18,19,19,20,20,21,21,22,22,23,23,24,24,26,26,27,27,28,28,29,29,31,31,33,33,34,34,35,35,36,36,37,37,38,38,39,39,40,40,41,41,42,42,43,43,44,44,45,45,46,46,47,47,48,48,49,49,50,50,51,51,53,53,57,57,58,58],"right_children":[2,4,6,8,10,12,14,16,18,20,22,24,26,28,30,32,34,36,38,40,42,44,46,48,50,-1,52,54,56,58,-1,60,-1,62,64,66,68,70,72,74,76,78,80,82,84,86,88,90,92,94,96,98,-1,100,-1,-1,-1,102,104,-1,-1,-1,-1,-1,-1,-1,-1,-1,-1,-1,-1,-1,-1,-1,-1,-1,-1,-1,-1,-1,-1,-1,-1,-1,-1,-1,-1,-1,-1,-1,-1,-1,-1,-1,-1,-1,-1,-1,-1,-1,-1,-1,-1,-1,-1],"split_conditions":[1.3747946E0,-7.1836114E-2,2.143103E0,-7.706471E-1,2.9676324E-1,2.09811E0,1.9615175E-1,2.9676324E-1,2.4566142E-1,4.548204E-1,-3.2971326E-1,-5.129645E-2,6.004949E-1,1.0841146E0,3.7039378E0,8.640314E-1,6.004949E-1,-3.1868327E-1,2.1522164E0,1.418314E-1,-9.341298E-1,6.5147924E-1,2.1522164E0,1.1834768E0,6.004949E-1,5.047788E3,2.8214252E0,2.1522164E0,1.1834768E0,2.1522164E0,-1.9272352E3,-1.0668391E0,8.486806E3,-1.9961146E0,-7.951515E-1,1.8985446E-1,-3.2971326E-1,-2.007493E-2,-7.3752636E-1,-1.9852261E-1,6.5147924E-1,1.150356E0,6.2042415E-1,-1.0268576E0,-7.962468E-1,4.8794115E-1,4.6786823E0,-6.602909E-2,-2.4021497E-1,1.6503069E0,-1.3668205E0,6.267056E-1,2.450731E4,9.185108E-1,1.3677751E4,2.1549129E4,9.2256455E3,3.3739958E0,-1.1680961E0,-8.0505864E3,-1.2066385E4,-8.486246E3,-6.172559E3,-8.1508306E3,5.573597E2,-7.6788643E3,-3.4819958E3,-6.850753E3,-3.0017046E3,-2.6623496E3,2.3295283E3,-4.463738E3,4.536991E3,-6.288056E3,-3.200954E3,-9.2598065E2,5.873991E3,-6.1228047E3,2.1209165E3,5.771664E3,3.2581696E2,-9.067674E3,-5.077765E3,-6.0561025E3,7.2744934E2,-1.5904755E2,4.796471E3,8.621944E3,2.0510352E4,4.5105493E3,-7.705613E3,2.4968832E4,5.555881E3,-1.6812478E3,6.410081E3,-1.5265605E3,1.3035125E4,1.4344823E4,2.9614389E4,-3.9759378E2,2.4021562E3,1.8751365E4,4.3995766E4,1.7461205E4,4.9658145E4],"split_indices":[1,1,3,0,3,1,5,3,5,0,5,5,4,0,4,5,4,3,4,5,3,1,4,0,4,0,1,4,0,4,0,6,0,0,1,0,5,6,0,5,1,0,0,2,5,0,5,5,5,2,0,5,0,0,0,0,0,3,0,0,0,0,0,0,0,0,0,0,0,0,0,0,0,0,0,0,0,0,0,0,0,0,0,0,0,0,0,0,0,0,0,0,0,0,0,0,0,0,0,0,0,0,0,0,0],"split_type":[0,0,0,0,0,0,0,0,0,0,0,0,0,0,0,0,0,0,0,0,0,0,0,0,0,0,0,0,0,0,0,0,0,0,0,0,0,0,0,0,0,0,0,0,0,0,0,0,0,0,0,0,0,0,0,0,0,0,0,0,0,0,0,0,0,0,0,0,0,0,0,0,0,0,0,0,0,0,0,0,0,0,0,0,0,0,0,0,0,0,0,0,0,0,0,0,0,0,0,0,0,0,0,0,0],"sum_hessian":[1.46E3,1.231E3,2.29E2,5.38E2,6.93E2,1.9E2,3.9E1,1.68E2,3.7E2,3.37E2,3.56E2,1.52E2,3.8E1,1.6E1,2.3E1,1.09E2,5.9E1,3.15E2,5.5E1,1.76E2,1.61E2,3.8E1,3.18E2,6E1,9.2E1,2E0,3.6E1,6E0,1E1,2.2E1,1E0,1.08E2,1E0,4.2E1,1.7E1,1.5E2,1.65E2,4.4E1,1.1E1,1.5E2,2.6E1,2.2E1,1.39E2,2E1,1.8E1,2.81E2,3.7E1,4.9E1,1.1E1,1E1,8.2E1,2.8E1,8E0,2E0,4E0,6E0,4E0,1.3E1,9E0,3.4E1,7.4E1,1.5E1,2.7E1,3E0,1.4E1,1.22E2,2.8E1,3.6E1,1.29E2,3.7E1,7E0,1E0,1E1,7.4E1,7.6E1,1.8E1,8E0,1.8E1,4E0,9E0,1.3E2,5E0,1.5E1,3E0,1.5E1,1.2E2,1.61E2,3.5E1,2E0,4.6E1,3E0,3E0,8E0,4E0,6E0,3E0,7.9E1,2.6E1,2E0,1E0,1E0,1.1E1,2E0,2E0,7E0],"tree_param":{"num_deleted":"0","num_feature":"8","num_nodes":"105","size_leaf_vector":"1"}},{"base_weights":[5.662965E2,-5.603384E3,3.361186E4,-1.0192936E4,7.508691E3,2.6463908E4,6.690303E4,-1.4966728E4,-3.0499995E3,4.4538904E2,1.343281E4,1.5865007E4,3.5751395E4,3.9705125E4,8.338059E4,-2.2814951E4,-1.1487409E4,-6.385206E3,6.7042197E3,-2.4090608E3,9.313527E3,7.499118E3,2.1165295E4,1.8833907E2,1.999929E4,3.2881523E4,2.5282988E4,4.07176E4,3.5258206E3,8.7480664E4,-1.63815E3,-2.6076727E4,-1.3104152E4,-2.8058666E4,-1.0093489E4,-8.127561E3,2.6620557E3,4.951766E3,9.474474E3,-3.1328484E3,7.4798535E3,-7.5724395E3,1.3650569E4,1.4135432E3,1.6221932E4,1.8790896E4,2.156616E4,-1.37006875E4,7.1193994E3,1.675001E4,6.018965E4,2.9788344E4,1.9070883E4,2.6372955E4,4.6687094E4,6.398254E4,1.1162996E5,-1.0603978E4,-6.782011E3,-5.0704004E3,-5.283601E1,-8.726726E3,-2.8296094E3,-4.2080166E3,-1.9337611E3,-4.109554E3,-1.4485588E3,-4.9697227E3,2.180142E3,-2.0850417E3,2.3575405E3,-1.1879418E3,5.931442E3,-3.2981785E3,-4.2074063E2,5.3724814E3,-1.6966008E3,-3.7755408E3,3.328675E3,5.43682E3,2.2349678E3,-8.793637E2,6.8076294E3,-1.8498E3,-6.5074814E3,-1.5326392E3,2.5359045E3,4.108425E3,1.2425411E4,2.188351E4,1.3752188E3,1.5651688E4,7.9014595E3,1.1359188E3,1.0395091E4,3.4307766E3,1.4799971E4,1.3594736E4,3.5196613E4,1.9125678E4,4.4027168E4],"categories":[],"categories_nodes":[],"categories_segments":[],"categories_sizes":[],"default_left":[0,0,0,0,0,0,0,0,0,0,0,0,0,0,0,0,0,0,0,0,0,0,0,0,0,0,0,0,0,0,0,0,0,0,0,0,0,0,0,0,0,0,0,0,0,0,0,0,0,0,0,0,0,0,0,0,0,0,0,0,0,0,0,0,0,0,0,0,0,0,0,0,0,0,0,0,0,0,0,0,0,0,0,0,0,0,0,0,0,0,0,0,0,0,0,0,0,0,0,0,0],"id":4,"left_children":[1,3,5,7,9,11,13,15,17,19,21,23,25,27,29,31,33,35,37,39,41,43,45,47,49,51,-1,53,-1,55,-1,57,59,61,63,65,67,69,-1,71,-1,73,75,77,79,81,-1,83,85,87,89,91,-1,93,95,97,99,-1,-1,-1,-1,-1,-1,-1,-1,-1,-1,-1,-1,-1,-1,-1,-1,-1,-1,-1,-1,-1,-1,-1,-1,-1,-1,-1,-1,-1,-1,-1,-1,-1,-1,-1,-1,-1,-1,-1,-1,-1,-1,-1,-1],"loss_changes":[2.9805786E11,7.4216505E10,5.2961133E10,3.1086633E10,1.3384047E10,1.823431E10,1.461556E10,1.4674551E10,1.1982175E10,3.743544E9,7.8247793E9,5.894105E9,1.1294237E10,2.578432E6,9.219801E9,4.947919E9,8.517513E9,4.3408456E9,3.941678E9,2.2945608E9,2.7398333E9,5.2854026E9,7.6817224E9,2.0228544E9,8.394283E9,7.313973E9,0E0,1.388073E8,0E0,5.909283E9,0E0,3.1895962E9,2.1569874E9,2.8223283E8,4.9740513E9,4.1609697E9,4.1049393E9,3.1335985E9,0E0,2.16179E9,0E0,1.5346522E8,2.4850427E9,8.2717844E9,5.486172E8,6.252704E9,0E0,2.8771302E8,2.7149267E8,4.5577646E9,3.2119665E9,5.5763845E9,0E0,1.1774976E9,3.6862157E8,8.622916E9,7.4620273E9,0E0,0E0,0E0,0E0,0E0,0E0,0E0,0E0,0E0,0E0,0E0,0E0,0E0,0E0,0E0,0E0,0E0,0E0,0E0,0E0,0E0,0E0,0E0,0E0,0E0,0E0,0E0,0E0,0E0,0E0,0E0,0E0,0E0,0E0,0E0,0E0,0E0,0E0,0E0,0E0,0E0,0E0,0E0,0E0],"parents":[2147483647,0,0,1,1,2,2,3,3,4,4,5,5,6,6,7,7,8,8,9,9,10,10,11,11,12,12,13,13,14,14,15,15,16,16,17,17,18,18,19,19,20,20,21,21,22,22,23,23,24,24,25,25,27,27,29,29,31,31,32,32,33,33,34,34,35,35,36,36,37,37,39,39,41,41,42,42,43,43,44,44,45,45,47,47,48,48,49,49,50,50,51,51,53,53,54,54,55,55,56,56],"right_children":[2,4,6,8,10,12,14,16,18,20,22,24,26,28,30,32,34,36,38,40,42,44,46,48,50,52,-1,54,-1,56,-1,58,60,62,64,66,68,70,-1,72,-1,74,76,78,80,82,-1,84,86,88,90,92,-1,94,96,98,100,-1,-1,-1,-1,-1,-1,-1,-1,-1,-1,-1,-1,-1,-1,-1,-1,-1,-1,-1,-1,-1,-1,-1,-1,-1,-1,-1,-1,-1,-1,-1,-1,-1,-1,-1,-1,-1,-1,-1,-1,-1,-1,-1,-1],"split_conditions":[1.3747946E0,6.5147924E-1,2.143103E0,6.004949E-1,-1.179441E-1,1.6503069E0,1.9615175E-1,-7.706471E-1,1.695929E-1,1.150356E0,9.1220975E-1,6.004949E-1,6.267056E-1,2.8214252E0,3.7039378E0,-2.007493E-2,-7.8692615E-1,9.1220975E-1,2.143103E0,1.5276563E0,-6.488202E-1,1.5325671E-1,1.1834768E0,9.5163155E-1,1.1834768E0,2.8214252E0,2.5282988E4,1.0841146E0,3.5258206E3,2.1522164E0,-1.63815E3,2.6381257E-1,1.0841209E-2,1.8985446E-1,-3.1868327E-1,-4.3943968E-1,-1.7642695E0,3.1172463E-1,9.474474E3,1.6503069E0,7.4798535E3,2.9676324E-1,-1.7005956E-1,7.529071E-1,7.04077E-1,6.004949E-1,2.156616E4,9.1220975E-1,-5.529077E-1,2.1522164E0,-2.4021497E-1,9.185108E-1,1.9070883E4,2.1522164E0,1.6503069E0,3.3739958E0,2.8214252E0,-1.0603978E4,-6.782011E3,-5.0704004E3,-5.283601E1,-8.726726E3,-2.8296094E3,-4.2080166E3,-1.9337611E3,-4.109554E3,-1.4485588E3,-4.9697227E3,2.180142E3,-2.0850417E3,2.3575405E3,-1.1879418E3,5.931442E3,-3.2981785E3,-4.2074063E2,5.3724814E3,-1.6966008E3,-3.7755408E3,3.328675E3,5.43682E3,2.2349678E3,-8.793637E2,6.8076294E3,-1.8498E3,-6.5074814E3,-1.5326392E3,2.5359045E3,4.108425E3,1.2425411E4,2.188351E4,1.3752188E3,1.5651688E4,7.9014595E3,1.1359188E3,1.0395091E4,3.4307766E3,1.4799971E4,1.3594736E4,3.5196613E4,1.9125678E4,4.4027168E4],"split_indices":[1,1,3,4,5,2,5,0,5,0,3,4,5,1,4,6,5,3,3,3,5,5,0,0,0,1,0,0,0,4,0,7,5,0,3,0,0,2,0,2,0,3,5,0,5,4,0,3,5,4,5,0,0,4,2,3,1,0,0,0,0,0,0,0,0,0,0,0,0,0,0,0,0,0,0,0,0,0,0,0,0,0,0,0,0,0,0,0,0,0,0,0,0,0,0,0,0,0,0,0,0],"split_type":[0,0,0,0,0,0,0,0,0,0,0,0,0,0,0,0,0,0,0,0,0,0,0,0,0,0,0,0,0,0,0,0,0,0,0,0,0,0,0,0,0,0,0,0,0,0,0,0,0,0,0,0,0,0,0,0,0,0,0,0,0,0,0,0,0,0,0,0,0,0,0,0,0,0,0,0,0,0,0,0,0,0,0,0,0,0,0,0,0,0,0,0,0,0,0,0,0,0,0,0,0],"sum_hessian":[1.46E3,1.231E3,2.29E2,9.12E2,3.19E2,1.9E2,3.9E1,5.46E2,3.66E2,1.46E2,1.73E2,9E1,1E2,1.6E1,2.3E1,1.66E2,3.8E2,2.73E2,9.3E1,1.11E2,3.5E1,9.9E1,7.4E1,1.9E1,7.1E1,9.6E1,4E0,1.5E1,1E0,2.2E1,1E0,1.23E2,4.3E1,2.8E1,3.52E2,2.29E2,4.4E1,8.8E1,5E0,1.09E2,2E0,7E0,2.8E1,5.9E1,4E1,7.2E1,2E0,6E0,1.3E1,6.7E1,4E0,8.9E1,7E0,6E0,9E0,1.3E1,9E0,3.1E1,9.2E1,3.3E1,1E1,2.6E1,2E0,1.68E2,1.84E2,8.4E1,1.45E2,8E0,3.6E1,1.7E1,7.1E1,1.06E2,3E0,4E0,3E0,2.3E1,5E0,2.4E1,3.5E1,3.2E1,8E0,1.1E1,6.1E1,4E0,2E0,1E0,1.2E1,6.1E1,6E0,3E0,1E0,1E1,7.9E1,2E0,4E0,1E0,8E0,1.1E1,2E0,5E0,4E0],"tree_param":{"num_deleted":"0","num_feature":"8","num_nodes":"101","size_leaf_vector":"1"}},{"base_weights":[5.689132E2,-3.9158003E3,2.4588904E4,-1.0380207E4,1.1104691E3,1.9050104E4,5.0421957E4,-1.808774E4,-7.6042026E3,-2.832735E2,1.639846E4,1.5064684E4,3.419675E4,7.556706E4,3.82784E4,-1.8636924E4,8.902083E3,-1.05946875E4,-2.94623E3,-1.5085347E3,1.2210762E4,1.4589401E3,2.2557314E4,-1.6375636E4,1.6237503E4,2.8405355E4,5.3087742E4,3.573411E4,4.3889832E4,1.9698318E4,5.9630938E4,-2.7912553E4,-1.639724E4,-1.7185738E4,-8.744796E3,-3.6731748E3,1.9887525E4,-6.451616E3,2.7444924E3,9.231036E3,4.1353703E4,-1.0312903E4,1.4376661E4,-8.103004E3,2.5191102E4,-2.2346309E4,2.0216603E3,1.1275421E4,2.4188146E4,2.2617307E4,4.2942336E4,1.168936E3,1.7867531E4,5.05653E4,4.553789E3,-8.874638E3,3.2343271E4,8.390208E4,-4.924022E4,-8.819518E3,-2.016504E3,-8.40227E3,-4.4364854E3,-6.5515005E3,-2.78331E3,3.967529E3,-2.785639E3,-7.4680225E2,-5.6187275E3,5.2905237E2,7.193296E3,-3.1868384E3,-9.659174E2,1.1741729E3,-4.374949E3,4.645608E3,3.0855157E2,1.4388231E4,2.2388157E3,-7.9924004E3,-8.701887E2,8.111536E3,1.061807E3,-4.0846125E3,1.2651165E3,-1.6543196E3,7.8510054E3,-7.7556553E3,-1.2484219E3,2.1992212E3,5.79447E3,6.619539E2,7.8899834E3,7.724582E3,2.5230283E3,1.38608E4,3.018005E3,4.5353066E3,1.9352906E4,-1.9015126E3,3.0891907E3,1.5771669E3,-7.4276724E3,5.962848E3,1.3746599E4,1.0904425E4,3.1764963E4,-2.0765672E4,-1.3924266E3],"categories":[],"categories_nodes":[],"categories_segments":[],"categories_sizes":[],"default_left":[0,0,0,0,0,0,0,0,0,0,0,0,0,0,0,0,0,0,0,0,0,0,0,0,0,0,0,0,0,0,0,0,0,0,0,0,0,0,0,0,0,0,0,0,0,0,0,0,0,0,0,0,0,0,0,0,0,0,0,0,0,0,0,0,0,0,0,0,0,0,0,0,0,0,0,0,0,0,0,0,0,0,0,0,0,0,0,0,0,0,0,0,0,0,0,0,0,0,0,0,0,0,0,0,0,0,0,0,0],"id":5,"left_children":[1,3,5,7,9,11,13,15,17,19,21,23,25,27,29,31,-1,33,35,37,39,41,43,45,47,49,51,53,-1,55,57,59,61,63,65,67,69,71,73,75,77,79,81,83,85,87,-1,89,91,93,95,-1,-1,97,99,101,103,105,107,-1,-1,-1,-1,-1,-1,-1,-1,-1,-1,-1,-1,-1,-1,-1,-1,-1,-1,-1,-1,-1,-1,-1,-1,-1,-1,-1,-1,-1,-1,-1,-1,-1,-1,-1,-1,-1,-1,-1,-1,-1,-1,-1,-1,-1,-1,-1,-1,-1,-1],"loss_changes":[1.5747927E11,4.0041484E10,3.1948816E10,1.139499E10,1.4792068E10,1.1014701E10,9.321456E9,4.2776494E9,5.5127654E9,9.769907E9,5.303689E9,5.9075953E9,2.758828E9,2.8581868E10,1.0330595E10,2.471514E9,0E0,2.8003553E9,2.6790743E9,1.2232104E10,4.568027E9,2.885442E9,3.5149885E9,9.7864384E8,5.566124E9,1.7212641E9,2.3143465E9,3.9317074E9,0E0,6.4291983E9,3.8482907E10,6.210335E8,1.7527542E9,1.7106217E9,2.3915725E9,2.6804035E9,3.28363E8,3.5921306E9,6.399477E9,2.7030405E9,7.616824E8,1.1330314E9,1.1392786E9,3.290677E8,1.2865208E9,2.1118848E8,0E0,2.8077363E9,2.541529E9,8.9562726E8,3.9285862E8,0E0,0E0,1.9905341E9,3.155053E8,1.4770086E9,1.1057224E9,7.649542E9,2.3518024E9,0E0,0E0,0E0,0E0,0E0,0E0,0E0,0E0,0E0,0E0,0E0,0E0,0E0,0E0,0E0,0E0,0E0,0E0,0E0,0E0,0E0,0E0,0E0,0E0,0E0,0E0,0E0,0E0,0E0,0E0,0E0,0E0,0E0,0E0,0E0,0E0,0E0,0E0,0E0,0E0,0E0,0E0,0E0,0E0,0E0,0E0,0E0,0E0,0E0,0E0],"parents":[2147483647,0,0,1,1,2,2,3,3,4,4,5,5,6,6,7,7,8,8,9,9,10,10,11,11,12,12,13,13,14,14,15,15,17,17,18,18,19,19,20,20,21,21,22,22,23,23,24,24,25,25,26,26,27,27,29,29,30,30,31,31,32,32,33,33,34,34,35,35,36,36,37,37,38,38,39,39,40,40,41,41,42,42,43,43,44,44,45,45,47,47,48,48,49,49,50,50,53,53,54,54,55,55,56,56,57,57,58,58],"right_children":[2,4,6,8,10,12,14,16,18,20,22,24,26,28,30,32,-1,34,36,38,40,42,44,46,48,50,52,54,-1,56,58,60,62,64,66,68,70,72,74,76,78,80,82,84,86,88,-1,90,92,94,96,-1,-1,98,100,102,104,106,108,-1,-1,-1,-1,-1,-1,-1,-1,-1,-1,-1,-1,-1,-1,-1,-1,-1,-1,-1,-1,-1,-1,-1,-1,-1,-1,-1,-1,-1,-1,-1,-1,-1,-1,-1,-1,-1,-1,-1,-1,-1,-1,-1,-1,-1,-1,-1,-1,-1,-1],"split_conditions":[1.3747946E0,-7.1836114E-2,2.143103E0,-7.951515E-1,1.5276563E0,2.09811E0,8.5226935E-1,2.4186754E0,-9.288859E-2,3.3816636E-1,1.0266893E0,-1.3668205E0,1.2165976E0,7.529071E-1,2.7585492E0,-1.5184668E0,8.902083E3,-1.300579E0,2.7585492E0,4.2169967E-1,3.5161068E0,2.143103E0,6.004949E-1,7.4997866E-1,7.598553E-2,2.8214252E0,1.6503069E0,3.606161E-1,4.3889832E4,1.0841146E0,2.8214252E0,-6.050434E-1,-6.401009E-1,2.9676324E-1,-1.1018546E0,1.5276563E0,1.12867236E-1,-1.5031582E-1,1.5500714E0,6.267056E-1,2.4250736E-2,-1.9961146E0,-1.8636316E0,-1.6317865E0,-6.488202E-1,-1.4993035E0,2.0216603E3,9.1220975E-1,6.004949E-1,1.1834768E0,3.496919E-1,1.168936E3,1.7867531E4,8.636325E-3,1.6503069E0,2.09811E0,2.8214252E0,1.418314E-1,1.2165976E0,-8.819518E3,-2.016504E3,-8.40227E3,-4.4364854E3,-6.5515005E3,-2.78331E3,3.967529E3,-2.785639E3,-7.4680225E2,-5.6187275E3,5.2905237E2,7.193296E3,-3.1868384E3,-9.659174E2,1.1741729E3,-4.374949E3,4.645608E3,3.0855157E2,1.4388231E4,2.2388157E3,-7.9924004E3,-8.701887E2,8.111536E3,1.061807E3,-4.0846125E3,1.2651165E3,-1.6543196E3,7.8510054E3,-7.7556553E3,-1.2484219E3,2.1992212E3,5.79447E3,6.619539E2,7.8899834E3,7.724582E3,2.5230283E3,1.38608E4,3.018005E3,4.5353066E3,1.9352906E4,-1.9015126E3,3.0891907E3,1.5771669E3,-7.4276724E3,5.962848E3,1.3746599E4,1.0904425E4,3.1764963E4,-2.0765672E4,-1.3924266E3],"split_indices":[1,1,3,1,3,1,0,5,5,5,6,0,0,0,3,1,0,0,3,0,5,3,4,5,5,1,2,5,0,0,1,0,5,3,0,3,5,5,6,5,0,0,0,0,5,0,0,3,4,0,5,0,0,5,2,1,1,5,0,0,0,0,0,0,0,0,0,0,0,0,0,0,0,0,0,0,0,0,0,0,0,0,0,0,0,0,0,0,0,0,0,0,0,0,0,0,0,0,0,0,0,0,0,0,0,0,0,0,0],"split_type":[0,0,0,0,0,0,0,0,0,0,0,0,0,0,0,0,0,0,0,0,0,0,0,0,0,0,0,0,0,0,0,0,0,0,0,0,0,0,0,0,0,0,0,0,0,0,0,0,0,0,0,0,0,0,0,0,0,0,0,0,0,0,0,0,0,0,0,0,0,0,0,0,0,0,0,0,0,0,0,0,0,0,0,0,0,0,0,0,0,0,0,0,0,0,0,0,0,0,0,0,0,0,0,0,0,0,0,0,0],"sum_hessian":[1.46E3,1.231E3,2.29E2,5.38E2,6.93E2,1.9E2,3.9E1,1.41E2,3.97E2,6.36E2,5.7E1,1.52E2,3.8E1,1.1E1,2.8E1,1.4E2,1E0,2.41E2,1.56E2,5.8E2,5.6E1,1.7E1,4E1,5E0,1.47E2,3.1E1,7E0,8E0,3E0,1.6E1,1.2E1,2.5E1,1.15E2,5.1E1,1.9E2,1.52E2,4E0,2.68E2,3.12E2,5.2E1,4E0,9E0,8E0,3E0,3.7E1,4E0,1E0,9.2E1,5.5E1,2.4E1,7E0,1E0,6E0,5E0,3E0,5E0,1.1E1,1E1,2E0,2.3E1,2E0,1.2E1,1.03E2,3.1E1,2E1,4E0,1.86E2,1.42E2,1E1,1E0,3E0,1.16E2,1.52E2,2.93E2,1.9E1,2.9E1,2.3E1,3E0,1E0,2E0,7E0,3E0,5E0,2E0,1E0,1E0,3.6E1,3E0,1E0,6.3E1,2.9E1,5E0,5E1,1.9E1,5E0,6E0,1E0,2E0,3E0,1E0,2E0,3E0,2E0,7E0,4E0,4E0,6E0,1E0,1E0],"tree_param":{"num_deleted":"0","num_feature":"8","num_nodes":"109","size_leaf_vector":"1"}},{"base_weights":[5.04612E2,-2.3919048E3,2.025089E4,-6.567807E3,2.1143486E3,1.458444E4,4.2828812E4,-8.818076E3,-4.465908E2,-1.1184072E3,6.7315156E3,-1.1109487E4,1.7085387E4,3.2458965E4,6.1727754E4,-1.5882581E4,-7.421736E3,-9.592196E3,2.6052524E3,-5.424765E3,1.6536346E3,4.693861E3,1.7153195E4,4.0400227E3,-1.4035869E4,1.5514211E4,1.6732744E4,1.6706395E4,5.242098E4,7.7024445E4,-9.837136E3,-2.7364223E4,-1.2764005E4,-1.5447439E4,-6.502404E3,-7.41134E3,-2.2532541E4,-1.662422E4,4.1107246E3,-2.1064576E4,-4.5798867E3,1.0871035E3,1.8817998E4,-6.657301E3,7.1967266E3,-8.201664E3,2.0902527E4,-1.9916523E3,-1.7449969E4,1.4126245E4,3.560889E4,-5.592146E3,2.735047E4,2.599075E4,7.011438E4,5.6384277E3,2.9788518E4,-1.765082E4,1.3224108E4,-1.1405286E3,-8.604481E3,-4.463136E3,-1.6484512E3,-5.437168E3,4.152217E3,-4.370538E3,-1.7907599E3,-3.8416526E3,-1.0987856E3,-1.9762501E3,-7.3212153E3,5.4957847E3,-6.7626924E3,3.9564795E2,2.3072498E3,-1.380818E3,-6.912329E3,-1.7051533E3,1.4112875E3,-4.3625674E3,6.003382E2,-1.3538954E3,8.715896E3,2.9448618E3,-2.8105762E3,2.5395476E3,-4.373673E3,-4.3038438E3,-4.6286603E2,9.843995E3,4.0739739E3,-3.0220415E3,3.3380708E3,-6.003545E3,-1.4405156E3,4.544585E3,-1.6692644E3,1.4794572E4,6.8462705E3,1.0562963E3,-7.6736724E3,-2.8824517E3,9.602146E3,7.163907E1,9.328015E3,2.3876625E4,3.41138E3],"categories":[],"categories_nodes":[],"categories_segments":[],"categories_sizes":[],"default_left":[0,0,0,0,0,0,0,0,0,0,0,0,0,0,0,0,0,0,0,0,0,0,0,0,0,0,0,0,0,0,0,0,0,0,0,0,0,0,0,0,0,0,0,0,0,0,0,0,0,0,0,0,0,0,0,0,0,0,0,0,0,0,0,0,0,0,0,0,0,0,0,0,0,0,0,0,0,0,0,0,0,0,0,0,0,0,0,0,0,0,0,0,0,0,0,0,0,0,0,0,0,0,0,0,0,0,0],"id":6,"left_children":[1,3,5,7,9,11,13,15,17,19,21,23,25,27,29,31,33,35,37,39,41,43,45,-1,47,49,-1,51,53,55,57,59,61,63,65,67,69,71,73,75,77,79,81,83,85,87,89,91,93,95,97,99,101,103,105,-1,-1,-1,-1,-1,-1,-1,-1,-1,-1,-1,-1,-1,-1,-1,-1,-1,-1,-1,-1,-1,-1,-1,-1,-1,-1,-1,-1,-1,-1,-1,-1,-1,-1,-1,-1,-1,-1,-1,-1,-1,-1,-1,-1,-1,-1,-1,-1,-1,-1,-1,-1],"loss_changes":[8.361096E10,2.4006425E10,2.329953E10,9.114702E9,9.172199E9,9.892938E9,5.2476027E9,4.656513E9,5.0210514E9,4.330311E9,5.2921375E9,1.1958898E9,7.523623E9,7.300014E9,1.3894177E10,2.4794276E9,2.8951409E9,1.1029501E9,3.976511E9,1.7798771E9,2.1285788E9,6.099333E9,4.0690514E9,0E0,4.998075E8,3.2343388E9,0E0,3.950506E9,3.321723E9,1.110188E10,1.0519212E10,3.8761062E8,9.013299E8,3.4647716E9,1.4871521E9,7.619474E8,1.8286336E7,2.4809457E9,1.2492645E9,1.2170829E8,1.4206484E9,3.1004334E9,1.8026621E9,1.8338753E9,4.9570714E9,2.2335395E8,2.6942505E9,5.3617366E8,2.279378E8,2.6409226E9,2.767954E8,1.1829151E9,2.2006815E9,7.809912E8,2.4342979E9,0E0,0E0,0E0,0E0,0E0,0E0,0E0,0E0,0E0,0E0,0E0,0E0,0E0,0E0,0E0,0E0,0E0,0E0,0E0,0E0,0E0,0E0,0E0,0E0,0E0,0E0,0E0,0E0,0E0,0E0,0E0,0E0,0E0,0E0,0E0,0E0,0E0,0E0,0E0,0E0,0E0,0E0,0E0,0E0,0E0,0E0,0E0,0E0,0E0,0E0,0E0,0E0],"parents":[2147483647,0,0,1,1,2,2,3,3,4,4,5,5,6,6,7,7,8,8,9,9,10,10,11,11,12,12,13,13,14,14,15,15,16,16,17,17,18,18,19,19,20,20,21,21,22,22,24,24,25,25,27,27,28,28,29,29,30,30,31,31,32,32,33,33,34,34,35,35,36,36,37,37,38,38,39,39,40,40,41,41,42,42,43,43,44,44,45,45,46,46,47,47,48,48,49,49,50,50,51,51,52,52,53,53,54,54],"right_children":[2,4,6,8,10,12,14,16,18,20,22,24,26,28,30,32,34,36,38,40,42,44,46,-1,48,50,-1,52,54,56,58,60,62,64,66,68,70,72,74,76,78,80,82,84,86,88,90,92,94,96,98,100,102,104,106,-1,-1,-1,-1,-1,-1,-1,-1,-1,-1,-1,-1,-1,-1,-1,-1,-1,-1,-1,-1,-1,-1,-1,-1,-1,-1,-1,-1,-1,-1,-1,-1,-1,-1,-1,-1,-1,-1,-1,-1,-1,-1,-1,-1,-1,-1,-1,-1,-1,-1,-1,-1],"split_conditions":[1.6503069E0,6.004949E-1,2.143103E0,5.210619E-1,6.5147924E-1,2.4250736E-2,4.7496945E-1,2.6381257E-1,-5.278522E-1,-1.4199738E-1,2.1522164E0,-2.9566162E0,6.267056E-1,2.7585492E0,1.150356E0,-9.341298E-1,-1.0268576E0,2.9676324E-1,3.1172463E-1,-1.0268576E0,2.4186754E0,2.5609595E-1,-1.6354513E-1,4.0400227E3,-2.2077191E-1,2.8214252E0,1.6732744E4,1.0841146E0,1.150356E0,-1.7311487E0,1.2165976E0,-1.0668391E0,1.334676E-2,1.5276563E0,-7.8692615E-1,-9.341298E-1,9.5163155E-1,5.5418265E-1,2.9676324E-1,-1.8636316E0,2.1522164E0,-7.951515E-1,-7.3752636E-1,-1.0668391E0,2.0734534E0,-4.3534726E-1,-2.007493E-2,9.1220975E-1,8.640314E-1,4.7496945E-1,1.7430334E-1,4.0902334E-1,-2.007493E-2,6.8468876E-2,3.496919E-1,5.6384277E3,2.9788518E4,-1.765082E4,1.3224108E4,-1.1405286E3,-8.604481E3,-4.463136E3,-1.6484512E3,-5.437168E3,4.152217E3,-4.370538E3,-1.7907599E3,-3.8416526E3,-1.0987856E3,-1.9762501E3,-7.3212153E3,5.4957847E3,-6.7626924E3,3.9564795E2,2.3072498E3,-1.380818E3,-6.912329E3,-1.7051533E3,1.4112875E3,-4.3625674E3,6.003382E2,-1.3538954E3,8.715896E3,2.9448618E3,-2.8105762E3,2.5395476E3,-4.373673E3,-4.3038438E3,-4.6286603E2,9.843995E3,4.0739739E3,-3.0220415E3,3.3380708E3,-6.003545E3,-1.4405156E3,4.544585E3,-1.6692644E3,1.4794572E4,6.8462705E3,1.0562963E3,-7.6736724E3,-2.8824517E3,9.602146E3,7.163907E1,9.328015E3,2.3876625E4,3.41138E3],"split_indices":[2,4,3,0,1,0,5,7,5,5,4,0,5,3,0,3,2,3,2,2,5,0,5,0,5,1,0,0,0,0,0,6,5,3,5,3,0,0,3,0,4,1,0,6,6,5,6,3,5,5,5,5,6,5,5,0,0,0,0,0,0,0,0,0,0,0,0,0,0,0,0,0,0,0,0,0,0,0,0,0,0,0,0,0,0,0,0,0,0,0,0,0,0,0,0,0,0,0,0,0,0,0,0,0,0,0,0],"split_type":[0,0,0,0,0,0,0,0,0,0,0,0,0,0,0,0,0,0,0,0,0,0,0,0,0,0,0,0,0,0,0,0,0,0,0,0,0,0,0,0,0,0,0,0,0,0,0,0,0,0,0,0,0,0,0,0,0,0,0,0,0,0,0,0,0,0,0,0,0,0,0,0,0,0,0,0,0,0,0,0,0,0,0,0,0,0,0,0,0,0,0,0,0,0,0,0,0,0,0,0,0,0,0,0,0,0,0],"sum_hessian":[1.46E3,1.274E3,1.86E2,6.61E2,6.13E2,1.5E2,3.6E1,4.83E2,1.78E2,3.61E2,2.52E2,1.3E1,1.37E2,2.5E1,1.1E1,7.8E1,4.05E2,4.4E1,1.34E2,1.41E2,2.2E2,2.12E2,4E1,1E0,1.2E1,1.33E2,4E0,1.5E1,1E1,9E0,2E0,1.5E1,6.3E1,4E1,3.65E2,3.9E1,5E0,9E0,1.25E2,6E0,1.35E2,2.14E2,6E0,3.8E1,1.74E2,5E0,3.5E1,3E0,9E0,1.26E2,7E0,5E0,1E1,5E0,5E0,3E0,6E0,1E0,1E0,1E0,1.4E1,4.8E1,1.5E1,3.7E1,3E0,2.1E1,3.44E2,1.5E1,2.4E1,1E0,4E0,1E0,8E0,7.1E1,5.4E1,1E0,5E0,1.21E2,1.4E1,1.1E1,2.03E2,2E0,4E0,5E0,3.3E1,1.65E2,9E0,2E0,3E0,1.2E1,2.3E1,2E0,1E0,7E0,2E0,1.2E2,6E0,2E0,5E0,4E0,1E0,1E0,9E0,1E0,4E0,4E0,1E0],"tree_param":{"num_deleted":"0","num_feature":"8","num_nodes":"107","size_leaf_vector":"1"}},{"base_weights":[4.027224E2,-1.9975686E3,1.3258183E4,-4.51412E3,1.8353799E3,1.0552907E4,3.164464E4,-1.5179177E4,-3.6407422E3,-4.576712E3,3.4133381E3,8.1337E3,2.5931709E4,2.008849E4,6.5094184E4,-1.562202E4,1.3765781E3,-1.2664458E4,-3.0353936E3,-9.674059E3,-6.7197546E2,2.3104568E3,1.2108682E4,3.5879553E3,1.5655578E4,3.5839402E3,3.084784E4,1.5191414E4,1.9173629E4,2.7189213E4,8.352552E2,-1.446234E4,-9.270706E3,-1.4397892E4,1.5247286E4,-4.3336816E3,-6.626988E2,-7.372898E3,-2.5228066E4,-7.726601E3,3.78156E3,-3.3154011E3,4.0717363E3,1.7680316E4,5.7333965E3,-9.09712E3,5.5125757E3,1.7966002E4,2.4701846E3,-4.4541875E3,8.716551E3,3.9230477E4,2.3255584E4,2.7320154E4,6.3092656E3,2.1705234E3,-1.7946587E3,-4.6973286E3,4.3573597E1,-5.125807E3,-2.7389421E3,1.0333125E2,6.7579478E3,-1.9855834E3,-6.310495E2,-3.3209943E2,3.5414944E3,-1.4486008E3,-3.7449014E3,-1.3778789E3,-8.771586E3,-3.3226592E3,5.1525376E3,-2.0442305E2,2.410333E3,1.1172734E3,-2.2509597E3,-4.1573203E2,2.1431116E3,3.223275E3,1.0662539E4,8.490469E1,5.211706E3,-4.7667373E3,4.0659517E3,6.7133022E3,8.6050616E2,4.5952E3,1.7896014E4,7.49628E3,-8.86447E3,-2.4613923E3,4.5700784E2,4.628502E3,-1.7128219E3,1.5143185E4,3.765796E3,2.6930784E3,1.4148535E4,-1.672254E3,9.638616E3,-4.6337363E3,4.96676E3],"categories":[],"categories_nodes":[],"categories_segments":[],"categories_sizes":[],"default_left":[0,0,0,0,0,0,0,0,0,0,0,0,0,0,0,0,0,0,0,0,0,0,0,0,0,0,0,0,0,0,0,0,0,0,0,0,0,0,0,0,0,0,0,0,0,0,0,0,0,0,0,0,0,0,0,0,0,0,0,0,0,0,0,0,0,0,0,0,0,0,0,0,0,0,0,0,0,0,0,0,0,0,0,0,0,0,0,0,0,0,0,0,0,0,0,0,0,0,0,0,0,0,0],"id":7,"left_children":[1,3,5,7,9,11,13,15,17,19,21,23,25,27,29,31,-1,33,35,37,39,41,43,45,47,49,51,53,-1,-1,55,57,-1,59,61,63,65,67,69,71,73,75,77,79,81,83,85,87,89,91,93,95,97,99,101,-1,-1,-1,-1,-1,-1,-1,-1,-1,-1,-1,-1,-1,-1,-1,-1,-1,-1,-1,-1,-1,-1,-1,-1,-1,-1,-1,-1,-1,-1,-1,-1,-1,-1,-1,-1,-1,-1,-1,-1,-1,-1,-1,-1,-1,-1,-1,-1],"loss_changes":[4.510833E10,1.1891924E10,1.1106353E10,6.8748186E9,4.96333E9,7.3043907E9,9.902248E9,5.619067E8,3.7252157E9,1.9241676E9,3.740866E9,5.9617137E9,2.8557885E9,3.965058E9,1.1410948E10,5.2769587E8,0E0,2.3000044E9,1.9901737E9,1.317271E9,1.7886281E9,3.4815473E9,1.461545E9,2.7600973E9,1.9662356E9,2.863646E8,4.878213E8,2.1976735E9,0E0,0E0,1.7417307E8,9.277706E8,0E0,4.2462157E8,3.176837E8,2.1161267E9,1.2871256E9,4.3377203E8,2.7950054E8,2.0248941E9,6.69792E8,2.504315E9,4.486235E9,2.467564E9,1.3906917E9,2.522961E9,4.261533E9,5.2695675E9,8.669029E9,7.975414E7,4.7538253E8,2.0667382E9,4.35551E9,1.6026624E9,3.376533E9,0E0,0E0,0E0,0E0,0E0,0E0,0E0,0E0,0E0,0E0,0E0,0E0,0E0,0E0,0E0,0E0,0E0,0E0,0E0,0E0,0E0,0E0,0E0,0E0,0E0,0E0,0E0,0E0,0E0,0E0,0E0,0E0,0E0,0E0,0E0,0E0,0E0,0E0,0E0,0E0,0E0,0E0,0E0,0E0,0E0,0E0,0E0,0E0],"parents":[2147483647,0,0,1,1,2,2,3,3,4,4,5,5,6,6,7,7,8,8,9,9,10,10,11,11,12,12,13,13,14,14,15,15,17,17,18,18,19,19,20,20,21,21,22,22,23,23,24,24,25,25,26,26,27,27,30,30,31,31,33,33,34,34,35,35,36,36,37,37,38,38,39,39,40,40,41,41,42,42,43,43,44,44,45,45,46,46,47,47,48,48,49,49,50,50,51,51,52,52,53,53,54,54],"right_children":[2,4,6,8,10,12,14,16,18,20,22,24,26,28,30,32,-1,34,36,38,40,42,44,46,48,50,52,54,-1,-1,56,58,-1,60,62,64,66,68,70,72,74,76,78,80,82,84,86,88,90,92,94,96,98,100,102,-1,-1,-1,-1,-1,-1,-1,-1,-1,-1,-1,-1,-1,-1,-1,-1,-1,-1,-1,-1,-1,-1,-1,-1,-1,-1,-1,-1,-1,-1,-1,-1,-1,-1,-1,-1,-1,-1,-1,-1,-1,-1,-1,-1,-1,-1,-1,-1],"split_conditions":[1.3747946E0,2.9676324E-1,2.1522164E0,-1.0268576E0,-1.300579E0,1.2165976E0,2.8214252E0,1.1834768E0,2.6381257E-1,9.1220975E-1,2.1522164E0,1.486465E-1,6.004949E-1,1.2497183E0,2.7585492E0,7.8602785E-1,1.3765781E3,6.5147924E-1,1.8985446E-1,1.6468203E-1,-1.9961146E0,-1.7447373E-1,-2.007493E-2,7.8602785E-1,1.1834768E0,2.9676324E-1,9.1220975E-1,7.8602785E-1,1.9173629E4,2.7189213E4,-2.592288E0,2.0462524E-2,-9.270706E3,-3.1868327E-1,-1.8636316E0,-3.1868327E-1,2.1522164E0,-1.5986657E0,-1.8305109E0,3.1701952E-1,-8.807793E-2,-6.3816416E-1,-1.2696408E-1,6.5147924E-1,2.5609595E-1,1.5276563E0,9.5163155E-1,2.7585492E0,3.496919E-1,1.2497183E0,1.6503069E0,2.09811E0,2.8354535E-1,-1.3668205E0,1.0509938E0,2.1705234E3,-1.7946587E3,-4.6973286E3,4.3573597E1,-5.125807E3,-2.7389421E3,1.0333125E2,6.7579478E3,-1.9855834E3,-6.310495E2,-3.3209943E2,3.5414944E3,-1.4486008E3,-3.7449014E3,-1.3778789E3,-8.771586E3,-3.3226592E3,5.1525376E3,-2.0442305E2,2.410333E3,1.1172734E3,-2.2509597E3,-4.1573203E2,2.1431116E3,3.223275E3,1.0662539E4,8.490469E1,5.211706E3,-4.7667373E3,4.0659517E3,6.7133022E3,8.6050616E2,4.5952E3,1.7896014E4,7.49628E3,-8.86447E3,-2.4613923E3,4.5700784E2,4.628502E3,-1.7128219E3,1.5143185E4,3.765796E3,2.6930784E3,1.4148535E4,-1.672254E3,9.638616E3,-4.6337363E3,4.96676E3],"split_indices":[1,3,4,2,0,0,1,0,7,3,4,5,4,0,3,0,0,1,0,5,0,0,6,0,0,3,3,0,0,0,0,5,0,3,0,3,4,0,0,5,5,0,5,1,0,3,0,3,5,0,2,1,5,0,0,0,0,0,0,0,0,0,0,0,0,0,0,0,0,0,0,0,0,0,0,0,0,0,0,0,0,0,0,0,0,0,0,0,0,0,0,0,0,0,0,0,0,0,0,0,0,0,0],"split_type":[0,0,0,0,0,0,0,0,0,0,0,0,0,0,0,0,0,0,0,0,0,0,0,0,0,0,0,0,0,0,0,0,0,0,0,0,0,0,0,0,0,0,0,0,0,0,0,0,0,0,0,0,0,0,0,0,0,0,0,0,0,0,0,0,0,0,0,0,0,0,0,0,0,0,0,0,0,0,0,0,0,0,0,0,0,0,0,0,0,0,0,0,0,0,0,0,0,0,0,0,0,0,0],"sum_hessian":[1.46E3,1.231E3,2.29E2,7.43E2,4.88E2,2.01E2,2.8E1,5.5E1,6.88E2,9.6E1,3.92E2,1.75E2,2.6E1,2.2E1,6E0,5.4E1,1E0,4.2E1,6.46E2,4.1E1,5.5E1,3.49E2,4.3E1,1.1E2,6.5E1,5E0,2.1E1,2.1E1,1E0,4E0,2E0,5.2E1,2E0,4E1,2E0,4.17E2,2.29E2,3.7E1,4E0,2.1E1,3.4E1,8.3E1,2.66E2,2.2E1,2.1E1,1.4E1,9.6E1,5.5E1,1E1,2E0,3E0,8E0,1.3E1,8E0,1.3E1,1E0,1E0,4.8E1,4E0,2.5E1,1.5E1,1E0,1E0,2.05E2,2.12E2,2.22E2,7E0,2.6E1,1.1E1,1E0,3E0,1.9E1,2E0,1.7E1,1.7E1,3.1E1,5.2E1,9.6E1,1.7E2,1.7E1,5E0,1.5E1,6E0,1.1E1,3E0,1.2E1,8.4E1,5.3E1,2E0,6E0,4E0,1E0,1E0,2E0,1E0,5E0,3E0,9E0,4E0,1E0,7E0,4E0,9E0],"tree_param":{"num_deleted":"0","num_feature":"8","num_nodes":"103","size_leaf_vector":"1"}},{"base_weights":[3.6075967E2,-1.2552198E3,1.1376873E4,-3.4452175E3,1.1080272E3,8.040991E3,2.4683393E4,-4.5182856E3,3.514998E1,7.172768E2,1.6664178E4,-4.4553403E3,9.982838E3,4.024408E4,1.7429654E4,-8.524476E3,-3.8123076E3,1.6160268E4,-1.532814E3,-8.24215E2,5.1098833E3,2.945548E4,-7.432026E3,-1.191101E4,2.128996E3,2.4373258E4,7.474866E3,1.7186957E4,2.288919E4,2.2321781E4,-1.6280516E4,-9.049387E3,4.54784E3,-3.9675159E3,1.3786852E4,8.392762E3,4.1843535E4,-7.038418E3,9.600361E2,-2.9161874E2,-8.1820767E3,1.2989965E4,1.592876E3,7.1688345E3,1.2935533E4,-3.987761E3,-1.1786367E3,-7.359219E2,-1.6595201E4,-5.762565E3,8.589049E3,6.6034243E3,3.2066764E4,-7.7654785E3,9.886812E3,1.979174E4,-1.5697969E2,-9.808432E3,2.9238246E4,8.66852E3,-1.229122E4,-4.527742E3,-2.1771614E3,-2.0882683E3,-9.687999E2,6.328969E2,5.0928096E3,4.1361665E3,1.1916387E3,1.5069701E4,3.7598909E3,-1.5580826E3,-5.449224E3,8.298875E2,-3.754909E3,-5.977675E2,6.769332E2,1.343115E3,-4.420648E3,2.5562192E3,1.0281313E4,-7.053173E2,2.79933E3,-2.814776E3,4.095701E3,5.455188E2,-1.5254602E3,-2.0742148E3,2.6697693E3,-3.8990627E1,-5.795324E3,-2.8052124E3,-4.8924493E2,5.797409E3,1.28955E2,5.6577285E3,-2.1909307E3,1.0053776E4,2.2075361E3,-3.8011921E3,9.871791E3,1.7912317E3,6.3248457E3,7.2998687E3,1.687772E3,1.332372E3,-6.236588E3,5.6297036E3,1.1985894E4],"categories":[],"categories_nodes":[],"categories_segments":[],"categories_sizes":[],"default_left":[0,0,0,0,0,0,0,0,0,0,0,0,0,0,0,0,0,0,0,0,0,0,0,0,0,0,0,0,0,0,0,0,0,0,0,0,0,0,0,0,0,0,0,0,0,0,0,0,0,0,0,0,0,0,0,0,0,0,0,0,0,0,0,0,0,0,0,0,0,0,0,0,0,0,0,0,0,0,0,0,0,0,0,0,0,0,0,0,0,0,0,0,0,0,0,0,0,0,0,0,0,0,0,0,0,0,0,0,0],"id":8,"left_children":[1,3,5,7,9,11,13,15,17,19,21,23,25,27,29,31,33,35,37,39,41,43,45,47,49,51,53,55,-1,57,59,61,-1,63,65,67,69,71,73,75,77,79,81,83,-1,-1,85,87,89,91,93,95,97,99,101,103,-1,105,107,-1,-1,-1,-1,-1,-1,-1,-1,-1,-1,-1,-1,-1,-1,-1,-1,-1,-1,-1,-1,-1,-1,-1,-1,-1,-1,-1,-1,-1,-1,-1,-1,-1,-1,-1,-1,-1,-1,-1,-1,-1,-1,-1,-1,-1,-1,-1,-1,-1,-1],"loss_changes":[2.6022728E10,6.602588E9,8.1022607E9,2.472511E9,3.7202908E9,3.7086372E9,3.4748662E9,1.398613E9,3.994296E9,4.0669123E9,4.842242E9,1.0562619E9,4.545704E9,7.832799E9,4.816099E9,1.0695808E9,1.2347223E9,2.4417462E9,1.983106E9,1.7414665E9,4.3027395E9,2.7359058E9,2.0422125E8,5.112498E8,6.612538E8,2.3857838E9,4.2305285E9,3.7940685E8,0E0,5.6202414E9,5.6454303E9,6.9191424E8,0E0,9.254651E8,1.1314906E8,2.313986E8,1.0808115E8,8.292759E8,2.468806E9,1.807482E9,2.5547873E9,4.2732723E9,3.3485135E9,6.6465E8,0E0,0E0,5.6074704E7,2.9963853E8,3.1128077E8,7.370256E7,6.0485344E8,1.3307663E9,2.178089E8,3.6089395E9,4.170832E9,3.134098E8,0E0,8.746481E8,1.4944686E9,0E0,0E0,0E0,0E0,0E0,0E0,0E0,0E0,0E0,0E0,0E0,0E0,0E0,0E0,0E0,0E0,0E0,0E0,0E0,0E0,0E0,0E0,0E0,0E0,0E0,0E0,0E0,0E0,0E0,0E0,0E0,0E0,0E0,0E0,0E0,0E0,0E0,0E0,0E0,0E0,0E0,0E0,0E0,0E0,0E0,0E0,0E0,0E0,0E0,0E0],"parents":[2147483647,0,0,1,1,2,2,3,3,4,4,5,5,6,6,7,7,8,8,9,9,10,10,11,11,12,12,13,13,14,14,15,15,16,16,17,17,18,18,19,19,20,20,21,21,22,22,23,23,24,24,25,25,26,26,27,27,29,29,30,30,31,31,33,33,34,34,35,35,36,36,37,37,38,38,39,39,40,40,41,41,42,42,43,43,46,46,47,47,48,48,49,49,50,50,51,51,52,52,53,53,54,54,55,55,57,57,58,58],"right_children":[2,4,6,8,10,12,14,16,18,20,22,24,26,28,30,32,34,36,38,40,42,44,46,48,50,52,54,56,-1,58,60,62,-1,64,66,68,70,72,74,76,78,80,82,84,-1,-1,86,88,90,92,94,96,98,100,102,104,-1,106,108,-1,-1,-1,-1,-1,-1,-1,-1,-1,-1,-1,-1,-1,-1,-1,-1,-1,-1,-1,-1,-1,-1,-1,-1,-1,-1,-1,-1,-1,-1,-1,-1,-1,-1,-1,-1,-1,-1,-1,-1,-1,-1,-1,-1,-1,-1,-1,-1,-1,-1],"split_conditions":[1.6503069E0,6.004949E-1,2.143103E0,7.8602785E-1,1.1834768E0,6.866656E-1,8.5226935E-1,-9.341298E-1,8.8539004E-1,1.6468203E-1,-1.8328886E-1,9.973815E-2,9.185108E-1,7.529071E-1,5.653697E-1,2.0734534E0,1.8221539E0,3.3816636E-1,-5.278522E-1,2.0734534E0,2.9907978E-1,-5.278522E-1,1.3747946E0,-2.2077191E-1,6.5147924E-1,7.8602785E-1,1.0509938E0,6.5354484E-1,2.288919E4,1.0841146E0,1.0841146E0,2.6381257E-1,4.54784E3,-7.951515E-1,-5.0568116E-1,-1.179441E-1,8.5226935E-1,2.9676324E-1,1.9224308E-1,4.548204E-1,-1.0823224E-1,1.3747946E0,8.640314E-1,-7.3370826E-1,1.2935533E4,-3.987761E3,2.8214252E0,9.1220975E-1,-1.5184668E0,-1.1680961E0,3.5545817E-1,4.5272214E-3,2.9888892E0,2.8214252E0,3.0579466E-1,8.640314E-1,-1.5697969E2,2.09811E0,2.7585492E0,8.66852E3,-1.229122E4,-4.527742E3,-2.1771614E3,-2.0882683E3,-9.687999E2,6.328969E2,5.0928096E3,4.1361665E3,1.1916387E3,1.5069701E4,3.7598909E3,-1.5580826E3,-5.449224E3,8.298875E2,-3.754909E3,-5.977675E2,6.769332E2,1.343115E3,-4.420648E3,2.5562192E3,1.0281313E4,-7.053173E2,2.79933E3,-2.814776E3,4.095701E3,5.455188E2,-1.5254602E3,-2.0742148E3,2.6697693E3,-3.8990627E1,-5.795324E3,-2.8052124E3,-4.8924493E2,5.797409E3,1.28955E2,5.6577285E3,-2.1909307E3,1.0053776E4,2.2075361E3,-3.8011921E3,9.871791E3,1.7912317E3,6.3248457E3,7.2998687E3,1.687772E3,1.332372E3,-6.236588E3,5.6297036E3,1.1985894E4],"split_indices":[2,4,3,0,0,0,0,3,0,5,5,5,0,0,5,6,5,5,5,6,5,5,1,5,1,0,0,0,0,0,0,7,0,1,0,5,0,3,5,0,0,1,5,5,0,0,1,3,1,0,0,5,2,1,5,5,0,1,3,0,0,0,0,0,0,0,0,0,0,0,0,0,0,0,0,0,0,0,0,0,0,0,0,0,0,0,0,0,0,0,0,0,0,0,0,0,0,0,0,0,0,0,0,0,0,0,0,0,0],"split_type":[0,0,0,0,0,0,0,0,0,0,0,0,0,0,0,0,0,0,0,0,0,0,0,0,0,0,0,0,0,0,0,0,0,0,0,0,0,0,0,0,0,0,0,0,0,0,0,0,0,0,0,0,0,0,0,0,0,0,0,0,0,0,0,0,0,0,0,0,0,0,0,0,0,0,0,0,0,0,0,0,0,0,0,0,0,0,0,0,0,0,0,0,0,0,0,0,0,0,0,0,0,0,0,0,0,0,0,0,0],"sum_hessian":[1.46E3,1.274E3,1.86E2,6.61E2,6.13E2,1.5E2,3.6E1,5.05E2,1.56E2,5.99E2,1.4E1,2E1,1.3E2,1E1,2.6E1,7.4E1,4.31E2,1.3E1,1.43E2,4.44E2,1.55E2,9E0,5E0,9E0,1.1E1,1.8E1,1.12E2,7E0,3E0,2.3E1,3E0,7.3E1,1E0,4.28E2,3E0,1.1E1,2E0,4.4E1,9.9E1,4.15E2,2.9E1,4.7E1,1.08E2,4E0,5E0,2E0,3E0,3E0,6E0,5E0,6E0,6E0,1.2E1,1.5E1,9.7E1,6E0,1E0,4E0,1.9E1,1E0,2E0,1.5E1,5.8E1,8.3E1,3.45E2,1E0,2E0,4E0,7E0,1E0,1E0,3.9E1,5E0,8.8E1,1.1E1,2.49E2,1.66E2,1E1,1.9E1,4E1,7E0,7.2E1,3.6E1,1E0,3E0,2E0,1E0,2E0,1E0,1E0,5E0,2E0,3E0,2E0,4E0,3E0,3E0,1.1E1,1E0,1.4E1,1E0,7.3E1,2.4E1,4E0,2E0,2E0,2E0,1.1E1,8E0],"tree_param":{"num_deleted":"0","num_feature":"8","num_nodes":"109","size_leaf_vector":"1"}},{"base_weights":[3.237378E2,-8.5048505E2,8.328071E3,-1.4031356E3,5.587287E3,6.4030884E3,2.3239697E4,-1.6221251E3,1.2763137E4,2.995766E1,7.935032E3,5.697404E3,1.0120615E4,1.2144059E4,4.895478E4,-7.4509434E3,-1.182648E3,1.7309047E4,4.917117E3,4.18341E3,-4.125367E3,1.942848E4,4.7712295E3,-5.5869204E3,6.7059014E3,2.7816568E4,-3.1364011E3,1.5917766E3,1.6987012E4,-9.398261E3,1.149311E4,-6.0165005E3,-7.7863947E2,9.398647E3,1.0712561E4,-2.2166672E3,7.7306743E3,1.8998093E3,5.7656133E3,-5.496136E3,2.4654258E3,2.6569047E4,9.859354E3,-8.422358E3,7.757575E3,-3.3435007E3,-1.0359594E4,1.3663051E4,4.94016E3,5.0943188E4,3.7519595E3,5.5694907E3,-8.1696934E3,-2.3353674E3,-4.9114316E3,1.0280687E3,4.08321E3,-9.5423627E2,-3.856529E3,-1.6628993E3,-1.0012174E2,1.5370648E3,4.9253813E3,2.4106876E2,3.1022422E3,-1.143617E3,1.2970206E3,-9.6371466E2,-2.8263508E3,3.1503423E3,9.052448E3,1.0511023E3,8.1523667E3,-7.779591E3,4.1557266E2,3.8405342E3,4.3308752E2,-2.2565774E3,4.1765198E2,4.3354922E2,-4.4328706E3,9.5929553E2,7.6185312E3,-3.5049236E3,2.0579443E3,4.6414175E3,1.7282998E4,-3.8346448E2,3.5808987E3,-1.323479E3,-3.2474673E3],"categories":[],"categories_nodes":[],"categories_segments":[],"categories_sizes":[],"default_left":[0,0,0,0,0,0,0,0,0,0,0,0,0,0,0,0,0,0,0,0,0,0,0,0,0,0,0,0,0,0,0,0,0,0,0,0,0,0,0,0,0,0,0,0,0,0,0,0,0,0,0,0,0,0,0,0,0,0,0,0,0,0,0,0,0,0,0,0,0,0,0,0,0,0,0,0,0,0,0,0,0,0,0,0,0,0,0,0,0,0,0],"id":9,"left_children":[1,3,5,7,9,11,13,15,17,19,21,23,-1,25,27,29,31,33,35,37,39,41,43,45,47,49,51,-1,-1,53,55,57,59,-1,61,-1,63,65,-1,67,-1,69,71,73,75,77,79,81,83,85,87,-1,89,-1,-1,-1,-1,-1,-1,-1,-1,-1,-1,-1,-1,-1,-1,-1,-1,-1,-1,-1,-1,-1,-1,-1,-1,-1,-1,-1,-1,-1,-1,-1,-1,-1,-1,-1,-1,-1,-1],"loss_changes":[1.3738833E10,4.544084E9,5.2189614E9,3.6658634E9,1.3175286E9,3.0288876E9,5.3973197E9,2.9575585E9,5.569011E8,5.522854E8,2.4890757E9,1.9038203E9,0E0,3.9189742E9,1.7079122E9,3.0961126E9,2.1005603E9,6.816819E8,3.3411034E8,5.128421E8,3.1588816E8,7.6298086E8,2.311172E9,1.1526221E8,1.7874657E9,4.2611277E9,1.1347342E9,0E0,0E0,7.052503E8,9.000499E7,1.5686715E9,2.109336E9,0E0,2.0286854E8,0E0,1.182553E8,2.2412957E8,0E0,1.041928E8,0E0,1.466281E8,7.851882E8,1.9249219E9,1.4784156E9,2.28136E8,2.2990362E8,3.6022144E9,3.9732698E9,5.462733E7,2.211012E8,0E0,3.2072832E7,0E0,0E0,0E0,0E0,0E0,0E0,0E0,0E0,0E0,0E0,0E0,0E0,0E0,0E0,0E0,0E0,0E0,0E0,0E0,0E0,0E0,0E0,0E0,0E0,0E0,0E0,0E0,0E0,0E0,0E0,0E0,0E0,0E0,0E0,0E0,0E0,0E0,0E0],"parents":[2147483647,0,0,1,1,2,2,3,3,4,4,5,5,6,6,7,7,8,8,9,9,10,10,11,11,13,13,14,14,15,15,16,16,17,17,18,18,19,19,20,20,21,21,22,22,23,23,24,24,25,25,26,26,29,29,30,30,31,31,32,32,34,34,36,36,37,37,39,39,41,41,42,42,43,43,44,44,45,45,46,46,47,47,48,48,49,49,50,50,52,52],"right_children":[2,4,6,8,10,12,14,16,18,20,22,24,-1,26,28,30,32,34,36,38,40,42,44,46,48,50,52,-1,-1,54,56,58,60,-1,62,-1,64,66,-1,68,-1,70,72,74,76,78,80,82,84,86,88,-1,90,-1,-1,-1,-1,-1,-1,-1,-1,-1,-1,-1,-1,-1,-1,-1,-1,-1,-1,-1,-1,-1,-1,-1,-1,-1,-1,-1,-1,-1,-1,-1,-1,-1,-1,-1,-1,-1,-1],"split_conditions":[1.6503069E0,2.1522164E0,2.1522164E0,1.2165976E0,-7.15413E-2,3.3739958E0,2.8214252E0,-1.0268576E0,-2.007493E-2,3.1172463E-1,4.7522474E-2,6.5147924E-1,1.0120615E4,-2.007493E-2,-2.592288E0,1.5276563E0,-1.6649072E0,-3.1868327E-1,1.2497183E0,9.1220975E-1,9.185108E-1,-2.007493E-2,-3.1868327E-1,1.5276563E0,9.185108E-1,2.4566142E-1,6.5354484E-1,1.5917766E3,1.6987012E4,-7.1836114E-2,-4.1840973E-1,-1.698028E0,-9.341298E-1,9.398647E3,2.9676324E-1,-2.2166672E3,6.5147924E-1,-3.1868327E-1,5.7656133E3,9.1220975E-1,2.4654258E3,-3.7766475E-2,1.2361297E-1,4.7496945E-1,-2.007493E-2,-1.1680961E0,-1.7311487E0,7.8602785E-1,1.0509938E0,1.0841146E0,1.0509938E0,5.5694907E3,1.7430334E-1,-2.3353674E3,-4.9114316E3,1.0280687E3,4.08321E3,-9.5423627E2,-3.856529E3,-1.6628993E3,-1.0012174E2,1.5370648E3,4.9253813E3,2.4106876E2,3.1022422E3,-1.143617E3,1.2970206E3,-9.6371466E2,-2.8263508E3,3.1503423E3,9.052448E3,1.0511023E3,8.1523667E3,-7.779591E3,4.1557266E2,3.8405342E3,4.3308752E2,-2.2565774E3,4.1765198E2,4.3354922E2,-4.4328706E3,9.5929553E2,7.6185312E3,-3.5049236E3,2.0579443E3,4.6414175E3,1.7282998E4,-3.8346448E2,3.5808987E3,-1.323479E3,-3.2474673E3],"split_indices":[2,4,4,0,5,3,1,2,6,2,5,1,0,6,0,3,0,3,0,3,0,6,3,3,0,5,0,0,0,1,5,0,3,0,3,0,1,3,0,3,0,5,0,5,6,0,0,0,0,0,0,0,5,0,0,0,0,0,0,0,0,0,0,0,0,0,0,0,0,0,0,0,0,0,0,0,0,0,0,0,0,0,0,0,0,0,0,0,0,0,0],"split_type":[0,0,0,0,0,0,0,0,0,0,0,0,0,0,0,0,0,0,0,0,0,0,0,0,0,0,0,0,0,0,0,0,0,0,0,0,0,0,0,0,0,0,0,0,0,0,0,0,0,0,0,0,0,0,0,0,0,0,0,0,0,0,0,0,0,0,0,0,0,0,0,0,0,0,0,0,0,0,0,0,0,0,0,0,0,0,0,0,0,0,0],"sum_hessian":[1.46E3,1.274E3,1.86E2,1.174E3,1E2,1.66E2,2E1,1.157E3,1.7E1,3E1,7E1,1.63E2,3E0,1.5E1,5E0,8E1,1.077E3,1E1,7E0,1.5E1,1.5E1,1.4E1,5.6E1,1.3E1,1.5E2,7E0,8E0,1E0,4E0,7.3E1,7E0,8.2E1,9.95E2,2E0,8E0,1E0,6E0,1.4E1,1E0,1.4E1,1E0,7E0,7E0,1E1,4.6E1,1E1,3E0,2.9E1,1.21E2,3E0,4E0,1E0,7E0,6.1E1,1.2E1,2E0,5E0,5.9E1,2.3E1,8.4E1,9.11E2,5E0,3E0,2E0,4E0,4E0,1E1,1E1,4E0,2E0,5E0,6E0,1E0,3E0,7E0,2.5E1,2.1E1,5E0,5E0,1E0,2E0,1.6E1,1.3E1,1.2E1,1.09E2,1E0,2E0,3E0,1E0,4E0,3E0],"tree_param":{"num_deleted":"0","num_feature":"8","num_nodes":"91","size_leaf_vector":"1"}},{"base_weights":[2.8637375E2,-7.212512E2,5.6824937E3,-1.9001444E3,1.0738772E3,4.0886267E3,1.6588654E4,-6.5519854E3,-1.5192979E3,4.8614542E2,6.1119233E3,2.6110151E3,1.3569034E4,1.1563454E4,3.0730219E4,-5.30174E3,-6.4439224E3,-9.230766E3,-1.2868372E3,-4.344127E3,1.3677916E3,5.250526E3,7.3772676E3,2.1218015E3,6.9350254E3,1.8252729E4,2.1735642E3,2.1867162E4,3.377701E3,4.303377E4,-1.9104166E1,-6.7406235E3,6.2779575E3,-6.581688E3,-4.758499E3,-1.4892887E3,6.129146E3,-9.6706024E2,-1.0495121E4,-3.0591868E3,2.0488477E3,1.2716773E4,2.81859E3,3.3026404E3,-7.6230312E3,2.0750916E4,-4.0071985E3,-4.1093184E3,7.865494E3,1.225618E4,2.4003281E3,1.3944151E4,-6.2901562E3,1.4252862E4,3.7696033E3,1.3530094E3,-1.3616063E3,-1.7101167E3,-4.0776963E3,-2.7113145E3,-2.9460742E2,-4.014246E2,-3.6480903E3,2.5602612E3,-5.213527E3,-1.4626875E3,1.119613E3,-4.0771511E3,1.1956289E3,2.941339E2,-1.4455414E3,4.5722373E3,3.6610114E2,7.0229065E2,6.810725E3,1.511783E3,-3.9869797E3,7.2036505E2,1.4452308E4,1.7982054E2,-7.6614614E3,3.5792864E3,9.085351E3,-2.4776099E3,9.615E0,-8.291321E2,2.5457063E3,1.8874689E2,7.131933E3,-1.0058457E3,-2.5167869E3],"categories":[],"categories_nodes":[],"categories_segments":[],"categories_sizes":[],"default_left":[0,0,0,0,0,0,0,0,0,0,0,0,0,0,0,0,0,0,0,0,0,0,0,0,0,0,0,0,0,0,0,0,0,0,0,0,0,0,0,0,0,0,0,0,0,0,0,0,0,0,0,0,0,0,0,0,0,0,0,0,0,0,0,0,0,0,0,0,0,0,0,0,0,0,0,0,0,0,0,0,0,0,0,0,0,0,0,0,0,0,0],"id":10,"left_children":[1,3,5,7,9,11,13,15,17,19,21,23,25,27,29,31,-1,33,35,37,39,41,-1,43,-1,45,47,49,51,53,55,57,-1,59,-1,61,63,65,67,69,71,73,75,77,79,81,-1,83,-1,-1,85,87,89,-1,-1,-1,-1,-1,-1,-1,-1,-1,-1,-1,-1,-1,-1,-1,-1,-1,-1,-1,-1,-1,-1,-1,-1,-1,-1,-1,-1,-1,-1,-1,-1,-1,-1,-1,-1,-1,-1],"loss_changes":[7.9479424E9,2.6092785E9,3.930258E9,1.3081439E9,1.4449672E9,2.7942597E9,1.705514E9,9.3126784E8,1.2232321E9,1.8754633E9,6.82689E8,1.7165272E9,1.4013947E9,1.8660426E9,2.6491028E9,2.1412466E9,0E0,2.4691878E8,1.01505075E9,1.4023684E9,1.1278555E9,8.720283E8,0E0,2.0159004E9,0E0,1.7775662E9,1.4673724E9,3.598059E9,1.51788E9,8.487526E7,8.187903E7,2.8601446E8,0E0,2.1117152E8,0E0,1.0373637E9,1.1659782E9,8.446999E8,1.129912E9,3.6006736E8,3.5116826E9,1.1901633E9,1.4620783E9,6.153827E9,2.814127E9,1.1522222E9,0E0,1.3773762E8,0E0,0E0,2.12005E8,9.011506E8,2.1199136E7,0E0,0E0,0E0,0E0,0E0,0E0,0E0,0E0,0E0,0E0,0E0,0E0,0E0,0E0,0E0,0E0,0E0,0E0,0E0,0E0,0E0,0E0,0E0,0E0,0E0,0E0,0E0,0E0,0E0,0E0,0E0,0E0,0E0,0E0,0E0,0E0,0E0,0E0],"parents":[2147483647,0,0,1,1,2,2,3,3,4,4,5,5,6,6,7,7,8,8,9,9,10,10,11,11,12,12,13,13,14,14,15,15,17,17,18,18,19,19,20,20,21,21,23,23,25,25,26,26,27,27,28,28,29,29,30,30,31,31,33,33,35,35,36,36,37,37,38,38,39,39,40,40,41,41,42,42,43,43,44,44,45,45,47,47,50,50,51,51,52,52],"right_children":[2,4,6,8,10,12,14,16,18,20,22,24,26,28,30,32,-1,34,36,38,40,42,-1,44,-1,46,48,50,52,54,56,58,-1,60,-1,62,64,66,68,70,72,74,76,78,80,82,-1,84,-1,-1,86,88,90,-1,-1,-1,-1,-1,-1,-1,-1,-1,-1,-1,-1,-1,-1,-1,-1,-1,-1,-1,-1,-1,-1,-1,-1,-1,-1,-1,-1,-1,-1,-1,-1,-1,-1,-1,-1,-1,-1],"split_conditions":[1.3747946E0,2.9676324E-1,2.1522164E0,-1.0268576E0,2.1522164E0,1.2165976E0,2.8214252E0,3.359161E-2,-8.4184784E-1,-1.0668391E0,2.0518272E1,3.5161068E0,-2.007493E-2,-2.007493E-2,2.7585492E0,2.0462524E-2,-6.4439224E3,-8.5828424E-1,8.640314E-1,-9.6937156E-1,-3.2971326E-1,-1.0668391E0,7.3772676E3,4.7496945E-1,6.9350254E3,2.143103E0,3.3739958E0,2.4566142E-1,7.8602785E-1,1.017873E0,-2.592288E0,-7.1836114E-2,6.2779575E3,-3.1868327E-1,-4.758499E3,6.637877E-1,5.873034E-1,-1.6649072E0,1.5276563E0,-1.6649072E0,-2.6787627E-1,-8.807793E-2,1.8221539E0,4.351813E-1,1.150356E0,-3.6909853E-3,-4.0071985E3,2.09811E0,7.865494E3,1.225618E4,1.0509938E0,9.602994E-2,1.7430334E-1,1.4252862E4,3.7696033E3,1.3530094E3,-1.3616063E3,-1.7101167E3,-4.0776963E3,-2.7113145E3,-2.9460742E2,-4.014246E2,-3.6480903E3,2.5602612E3,-5.213527E3,-1.4626875E3,1.119613E3,-4.0771511E3,1.1956289E3,2.941339E2,-1.4455414E3,4.5722373E3,3.6610114E2,7.0229065E2,6.810725E3,1.511783E3,-3.9869797E3,7.2036505E2,1.4452308E4,1.7982054E2,-7.6614614E3,3.5792864E3,9.085351E3,-2.4776099E3,9.615E0,-8.291321E2,2.5457063E3,1.8874689E2,7.131933E3,-1.0058457E3,-2.5167869E3],"split_indices":[1,3,4,2,4,0,1,5,5,6,5,5,6,6,3,5,0,5,5,0,5,6,0,5,0,3,3,5,0,0,0,1,0,3,0,5,0,0,3,0,5,5,5,5,0,5,0,1,0,0,0,5,5,0,0,0,0,0,0,0,0,0,0,0,0,0,0,0,0,0,0,0,0,0,0,0,0,0,0,0,0,0,0,0,0,0,0,0,0,0,0],"split_type":[0,0,0,0,0,0,0,0,0,0,0,0,0,0,0,0,0,0,0,0,0,0,0,0,0,0,0,0,0,0,0,0,0,0,0,0,0,0,0,0,0,0,0,0,0,0,0,0,0,0,0,0,0,0,0,0,0,0,0,0,0,0,0,0,0,0,0,0,0,0,0,0,0,0,0,0,0,0,0,0,0,0,0,0,0,0,0,0,0,0,0],"sum_hessian":[1.46E3,1.231E3,2.29E2,7.43E2,4.88E2,2.01E2,2.8E1,5.5E1,6.88E2,4.38E2,5E1,1.75E2,2.6E1,2.2E1,6E0,5.2E1,3E0,1.9E1,6.69E2,6.7E1,3.71E2,4.9E1,1E0,1.72E2,3E0,1.8E1,8E0,9E0,1.3E1,4E0,2E0,5E1,2E0,1.5E1,4E0,6.52E2,1.7E1,4.4E1,2.3E1,4.9E1,3.22E2,1.1E1,3.8E1,1.54E2,1.8E1,1.7E1,1E0,7E0,1E0,4E0,5E0,6E0,7E0,3E0,1E0,1E0,1E0,4.5E1,5E0,1E1,5E0,6.44E2,8E0,1.6E1,1E0,2.4E1,2E1,1.9E1,4E0,1.5E1,3.4E1,1.8E1,3.04E2,6E0,5E0,3.4E1,4E0,1.52E2,2E0,1.3E1,5E0,1E1,7E0,3E0,4E0,3E0,2E0,3E0,3E0,4E0,3E0],"tree_param":{"num_deleted":"0","num_feature":"8","num_nodes":"91","size_leaf_vector":"1"}},{"base_weights":[2.3949127E2,-4.4397855E2,6.0853896E3,-8.212391E2,5.9548604E3,1.1961135E3,9.057831E3,-1.280066E3,3.4603425E3,8.056993E3,-8.0942764E3,4.3072793E3,-5.0860234E3,1.49246E4,4.8848174E3,-1.1096132E3,-9.72128E3,2.578849E4,2.4680918E3,2.4228809E2,1.5390738E4,4.111992E3,-2.1122943E4,-2.4889548E0,1.4363612E4,-8.905893E3,3.7259778E3,1.1550439E4,1.2468268E4,-1.9034361E4,1.037899E4,-1.3947682E3,4.117684E3,-2.3729654E4,-4.205308E3,-7.3003804E3,1.508436E4,4.861477E3,-3.2097844E3,-1.4836891E3,1.7421297E4,-3.2537393E3,1.8375918E4,1.5004449E4,-3.5345847E3,-8.672384E3,1.5025594E3,5.11293E3,-3.4126301E3,1.2340562E4,8.190267E3,-1.4589378E4,-6.882988E2,-4.7831797E3,1.3180259E4,3.2868283E2,-2.1156918E4,2.6904223E4,6.814469E3,-1.5981495E3,-3.1988995E2,-4.5443326E2,2.882447E3,-1.3315078E3,-9.679714E3,4.3567563E3,-2.301156E3,-3.2034517E3,-8.1719536E1,6.4710786E3,7.5180206E2,-2.9791602E3,2.6783035E3,9.9412994E2,-3.9137847E3,6.263377E3,1.5762072E3,1.7474381E3,6.8025605E3,6.6004846E2,8.012597E3,2.6130317E3,-2.5745894E3,-2.7141692E3,5.9993207E2,3.3432593E3,-3.2023547E3,1.2111165E3,-5.132263E3,1.7974071E3,-4.145453E3,1.3719188E3,-2.8278845E3,5.0051045E3,5.952167E2,-5.415727E2,-6.9319575E3,3.3380776E3,1.19699375E4,6.110011E3,9.9677405E2],"categories":[],"categories_nodes":[],"categories_segments":[],"categories_sizes":[],"default_left":[0,0,0,0,0,0,0,0,0,0,0,0,0,0,0,0,0,0,0,0,0,0,0,0,0,0,0,0,0,0,0,0,0,0,0,0,0,0,0,0,0,0,0,0,0,0,0,0,0,0,0,0,0,0,0,0,0,0,0,0,0,0,0,0,0,0,0,0,0,0,0,0,0,0,0,0,0,0,0,0,0,0,0,0,0,0,0,0,0,0,0,0,0,0,0,0,0,0,0,0,0],"id":11,"left_children":[1,3,5,7,9,11,13,15,17,19,21,23,25,27,29,31,33,35,37,39,41,43,45,47,49,51,-1,53,-1,55,57,59,61,63,65,67,-1,69,71,73,75,-1,77,79,-1,-1,-1,81,83,-1,85,87,89,91,93,-1,95,97,99,-1,-1,-1,-1,-1,-1,-1,-1,-1,-1,-1,-1,-1,-1,-1,-1,-1,-1,-1,-1,-1,-1,-1,-1,-1,-1,-1,-1,-1,-1,-1,-1,-1,-1,-1,-1,-1,-1,-1,-1,-1,-1],"loss_changes":[5.8401203E9,3.1648548E9,2.2127278E9,2.434522E9,2.221136E9,1.1750482E9,2.2528963E9,1.597824E9,2.5949665E9,3.6641782E9,1.6771717E9,1.7336543E9,1.4480192E9,3.0250834E9,7.6882755E9,1.64092E9,1.6001449E9,4.419252E9,1.5919681E9,9.7466624E8,2.7838874E9,1.215526E9,1.1619543E9,5.233333E8,1.646335E9,7.839359E8,0E0,1.0213944E9,0E0,4.931771E8,2.5851756E9,1.338946E9,1.7772723E9,8.448228E8,1.2146255E9,6.830845E7,0E0,3.1732224E9,2.9437059E9,1.7073138E9,1.648E7,0E0,1.4867466E9,5.4069274E8,0E0,0E0,0E0,6.65905E8,5.670336E8,0E0,7.319366E8,5.381087E8,7.8441414E8,2.1687491E8,1.2613243E9,0E0,3.3556787E8,1.1963177E9,1.8252457E9,0E0,0E0,0E0,0E0,0E0,0E0,0E0,0E0,0E0,0E0,0E0,0E0,0E0,0E0,0E0,0E0,0E0,0E0,0E0,0E0,0E0,0E0,0E0,0E0,0E0,0E0,0E0,0E0,0E0,0E0,0E0,0E0,0E0,0E0,0E0,0E0,0E0,0E0,0E0,0E0,0E0,0E0],"parents":[2147483647,0,0,1,1,2,2,3,3,4,4,5,5,6,6,7,7,8,8,9,9,10,10,11,11,12,12,13,13,14,14,15,15,16,16,17,17,18,18,19,19,20,20,21,21,22,22,23,23,24,24,25,25,27,27,29,29,30,30,31,31,32,32,33,33,34,34,35,35,37,37,38,38,39,39,40,40,42,42,43,43,47,47,48,48,50,50,51,51,52,52,53,53,54,54,56,56,57,57,58,58],"right_children":[2,4,6,8,10,12,14,16,18,20,22,24,26,28,30,32,34,36,38,40,42,44,46,48,50,52,-1,54,-1,56,58,60,62,64,66,68,-1,70,72,74,76,-1,78,80,-1,-1,-1,82,84,-1,86,88,90,92,94,-1,96,98,100,-1,-1,-1,-1,-1,-1,-1,-1,-1,-1,-1,-1,-1,-1,-1,-1,-1,-1,-1,-1,-1,-1,-1,-1,-1,-1,-1,-1,-1,-1,-1,-1,-1,-1,-1,-1,-1,-1,-1,-1,-1,-1],"split_conditions":[1.5276563E0,1.1834768E0,-4.199075E-2,3.3816636E-1,1.9615175E-1,-7.3752636E-1,8.5226935E-1,2.9907978E-1,3.496919E-1,6.004949E-1,2.9676324E-1,-1.4661827E0,2.7585492E0,2.09811E0,1.0509938E0,2.1522164E0,3.0579466E-1,-6.7128485E-1,-2.007493E-2,1.486465E-1,-6.796886E-1,2.09811E0,2.8214252E0,5.0330716E-1,-3.2109416E-1,-2.0759447E-1,3.7259778E3,6.004949E-1,1.2468268E4,6.004949E-1,-2.007493E-2,2.6381257E-1,-7.15413E-2,-1.7447373E-1,-6.7128485E-1,-1.0024923E0,1.508436E4,4.0280956E-1,8.640314E-1,-3.0951377E-2,1.2165976E0,-3.2537393E3,2.9676324E-1,6.004949E-1,-3.5345847E3,-8.672384E3,1.5025594E3,-1.698028E0,-1.9961146E0,1.2340562E4,8.640314E-1,-1.0268576E0,-7.511149E-2,2.892167E-1,4.7496945E-1,3.2868283E2,2.5273181E-2,2.8354535E-1,-5.179756E-2,-1.5981495E3,-3.1988995E2,-4.5443326E2,2.882447E3,-1.3315078E3,-9.679714E3,4.3567563E3,-2.301156E3,-3.2034517E3,-8.1719536E1,6.4710786E3,7.5180206E2,-2.9791602E3,2.6783035E3,9.9412994E2,-3.9137847E3,6.263377E3,1.5762072E3,1.7474381E3,6.8025605E3,6.6004846E2,8.012597E3,2.6130317E3,-2.5745894E3,-2.7141692E3,5.9993207E2,3.3432593E3,-3.2023547E3,1.2111165E3,-5.132263E3,1.7974071E3,-4.145453E3,1.3719188E3,-2.8278845E3,5.0051045E3,5.952167E2,-5.415727E2,-6.9319575E3,3.3380776E3,1.19699375E4,6.110011E3,9.9677405E2],"split_indices":[3,0,0,5,5,0,0,5,5,4,3,0,3,1,0,4,5,0,6,5,5,1,1,6,5,0,0,4,0,4,6,7,5,0,0,0,0,5,5,5,0,0,3,4,0,0,0,0,0,0,5,2,0,0,5,0,5,5,5,0,0,0,0,0,0,0,0,0,0,0,0,0,0,0,0,0,0,0,0,0,0,0,0,0,0,0,0,0,0,0,0,0,0,0,0,0,0,0,0,0,0],"split_type":[0,0,0,0,0,0,0,0,0,0,0,0,0,0,0,0,0,0,0,0,0,0,0,0,0,0,0,0,0,0,0,0,0,0,0,0,0,0,0,0,0,0,0,0,0,0,0,0,0,0,0,0,0,0,0,0,0,0,0,0,0,0,0,0,0,0,0,0,0,0,0,0,0,0,0,0,0,0,0,0,0,0,0,0,0,0,0,0,0,0,0,0,0,0,0,0,0,0,0,0,0],"sum_hessian":[1.46E3,1.308E3,1.52E2,1.236E3,7.2E1,5.8E1,9.4E1,1.117E3,1.19E2,6.3E1,9E0,3.9E1,1.9E1,3.8E1,5.6E1,1.096E3,2.1E1,4E0,1.15E2,3.1E1,3.2E1,5E0,4E0,2.8E1,1.1E1,1.6E1,3E0,3.5E1,3E0,1E1,4.6E1,1.04E3,5.6E1,5E0,1.6E1,2E0,2E0,8.1E1,3.4E1,2.9E1,2E0,3E0,2.9E1,3E0,2E0,3E0,1E0,1.1E1,1.7E1,1E0,1E1,9E0,7E0,3E0,3.2E1,1E0,9E0,7E0,3.9E1,7.9E1,9.61E2,2.8E1,2.8E1,2E0,3E0,2E0,1.4E1,1E0,1E0,9E0,7.2E1,2.2E1,1.2E1,2.1E1,8E0,1E0,1E0,8E0,2.1E1,2E0,1E0,9E0,2E0,8E0,9E0,9E0,1E0,1E0,8E0,5E0,2E0,1E0,2E0,2.4E1,8E0,1E0,8E0,4E0,3E0,7E0,3.2E1],"tree_param":{"num_deleted":"0","num_feature":"8","num_nodes":"101","size_leaf_vector":"1"}},{"base_weights":[2.0748334E2,-1.452854E2,6.464207E3,-3.4100488E2,7.8776855E3,-2.9455562E3,8.751382E3,-5.525744E2,5.296294E3,1.0666037E4,-7.4303296E2,1.2898533E3,-7.3421973E3,3.582682E4,6.800496E3,-3.6812408E2,-9.974328E3,-2.0899868E3,1.1392152E4,6.032306E3,1.8233523E4,2.7070762E3,-4.251586E3,2.3885947E3,-1.1250117E3,-9.168011E3,8.15775E2,8.3609064E2,1.3773335E4,-5.872615E3,8.585107E3,-7.308595E2,5.010279E3,-1.4120833E4,2.7053728E3,9.048206E3,-4.911091E3,1.5305542E3,2.5597154E4,1.3553761E4,-2.1594045E3,2.7450604E4,-1.5047656E2,-1.6616438E3,4.6763193E3,-7.3671875E2,3.5531523E3,-3.425746E3,-7.080313E2,2.2624993E3,-4.628855E3,1.6480377E4,3.3006897E3,-8.9302637E2,-1.01809135E2,2.679673E3,-4.810824E2,-3.0544114E3,-7.904541E3,4.1925283E3,-2.7722075E3,4.883922E3,-3.598188E2,-2.368285E3,2.474835E3,-5.0359062E3,1.5275697E3,-1.1650289E3,8.680066E3,6.926975E3,2.2591755E3,-3.0906133E3,3.178322E3,9.498831E3,9.584672E2,-4.7953657E3,7.1027627E3,7.431563E1,1.9194648E3,-3.435996E2,1.2076173E1,1.4691581E3,1.7301407E2,3.0690247E3,1.5171638E4,2.062256E3,-2.0977307E3],"categories":[],"categories_nodes":[],"categories_segments":[],"categories_sizes":[],"default_left":[0,0,0,0,0,0,0,0,0,0,0,0,0,0,0,0,0,0,0,0,0,0,0,0,0,0,0,0,0,0,0,0,0,0,0,0,0,0,0,0,0,0,0,0,0,0,0,0,0,0,0,0,0,0,0,0,0,0,0,0,0,0,0,0,0,0,0,0,0,0,0,0,0,0,0,0,0,0,0,0,0,0,0,0,0,0,0],"id":12,"left_children":[1,3,5,7,9,11,13,15,17,19,21,23,25,27,29,31,33,35,37,39,41,43,-1,45,-1,47,-1,-1,-1,49,51,53,55,57,59,61,63,65,67,69,71,73,75,-1,77,79,81,-1,-1,-1,-1,83,85,-1,-1,-1,-1,-1,-1,-1,-1,-1,-1,-1,-1,-1,-1,-1,-1,-1,-1,-1,-1,-1,-1,-1,-1,-1,-1,-1,-1,-1,-1,-1,-1,-1,-1],"loss_changes":[3.225624E9,2.175915E9,1.7044756E9,1.6154309E9,8.0116595E8,3.0741555E8,3.0840883E9,2.2624788E9,2.2300698E9,7.666519E8,4.553457E8,5.8795172E7,1.7189277E8,1.2047816E9,1.4074115E9,2.5008612E9,1.3526131E9,7.6714266E8,3.7430902E9,1.0766989E9,1.529152E9,1.5580651E8,0E0,3.1734536E7,0E0,8.032858E7,0E0,0E0,0E0,1.1419556E9,2.1568643E9,1.0540996E9,2.1154181E9,6.469719E8,1.07154125E9,3.900552E8,8.110714E8,1.1944324E9,1.1943112E9,3.4306086E8,1.0437912E9,5.118551E8,1.8875213E9,0E0,5.1794176E7,9.9854825E5,2.1178448E7,0E0,0E0,0E0,0E0,3.9573965E9,1.2618885E9,0E0,0E0,0E0,0E0,0E0,0E0,0E0,0E0,0E0,0E0,0E0,0E0,0E0,0E0,0E0,0E0,0E0,0E0,0E0,0E0,0E0,0E0,0E0,0E0,0E0,0E0,0E0,0E0,0E0,0E0,0E0,0E0,0E0,0E0],"parents":[2147483647,0,0,1,1,2,2,3,3,4,4,5,5,6,6,7,7,8,8,9,9,10,10,11,11,12,12,13,13,14,14,15,15,16,16,17,17,18,18,19,19,20,20,21,21,23,23,25,25,29,29,30,30,31,31,32,32,33,33,34,34,35,35,36,36,37,37,38,38,39,39,40,40,41,41,42,42,44,44,45,45,46,46,51,51,52,52],"right_children":[2,4,6,8,10,12,14,16,18,20,22,24,26,28,30,32,34,36,38,40,42,44,-1,46,-1,48,-1,-1,-1,50,52,54,56,58,60,62,64,66,68,70,72,74,76,-1,78,80,82,-1,-1,-1,-1,84,86,-1,-1,-1,-1,-1,-1,-1,-1,-1,-1,-1,-1,-1,-1,-1,-1,-1,-1,-1,-1,-1,-1,-1,-1,-1,-1,-1,-1,-1,-1,-1,-1,-1,-1],"split_conditions":[2.143103E0,1.2165976E0,-9.288859E-2,8.640314E-1,-2.007493E-2,6.004949E-1,-5.179756E-2,6.1317563E-1,-2.407152E-1,-3.6909853E-3,1.6503069E0,-2.4021497E-1,2.09811E0,-1.698028E0,7.027287E-2,3.301486E-1,2.1522164E0,-7.951515E-1,9.1220975E-1,1.6503069E0,1.9615175E-1,1.2497183E0,-4.251586E3,-2.3604429E0,-1.1250117E3,2.7585492E0,8.15775E2,8.3609064E2,1.3773335E4,-1.2343376E0,2.4566142E-1,-1.300579E0,-2.007493E-2,9.185108E-1,7.04077E-1,-5.388019E-1,-2.007493E-2,1.08913E0,-7.1836114E-2,-3.1868327E-1,2.09811E0,2.8214252E0,1.5276563E0,-1.6616438E3,6.5147924E-1,-2.592288E0,-3.3883345E-1,-3.425746E3,-7.080313E2,2.2624993E3,-4.628855E3,1.9615175E-1,1.1834768E0,-8.9302637E2,-1.01809135E2,2.679673E3,-4.810824E2,-3.0544114E3,-7.904541E3,4.1925283E3,-2.7722075E3,4.883922E3,-3.598188E2,-2.368285E3,2.474835E3,-5.0359062E3,1.5275697E3,-1.1650289E3,8.680066E3,6.926975E3,2.2591755E3,-3.0906133E3,3.178322E3,9.498831E3,9.584672E2,-4.7953657E3,7.1027627E3,7.431563E1,1.9194648E3,-3.435996E2,1.2076173E1,1.4691581E3,1.7301407E2,3.0690247E3,1.5171638E4,2.062256E3,-2.0977307E3],"split_indices":[3,0,5,5,6,4,5,5,0,5,2,5,1,0,5,5,4,1,3,2,5,0,0,0,0,3,0,0,0,0,5,0,6,0,5,0,6,5,1,3,1,1,3,0,1,0,5,0,0,0,0,5,0,0,0,0,0,0,0,0,0,0,0,0,0,0,0,0,0,0,0,0,0,0,0,0,0,0,0,0,0,0,0,0,0,0,0],"split_type":[0,0,0,0,0,0,0,0,0,0,0,0,0,0,0,0,0,0,0,0,0,0,0,0,0,0,0,0,0,0,0,0,0,0,0,0,0,0,0,0,0,0,0,0,0,0,0,0,0,0,0,0,0,0,0,0,0,0,0,0,0,0,0,0,0,0,0,0,0,0,0,0,0,0,0,0,0,0,0,0,0,0,0,0,0,0,0],"sum_hessian":[1.46E3,1.383E3,7.7E1,1.351E3,3.2E1,1.5E1,6.2E1,1.303E3,4.8E1,2.4E1,8E0,8E0,7E0,3E0,5.9E1,1.279E3,2.4E1,2.2E1,2.6E1,1.6E1,8E0,7E0,1E0,7E0,1E0,6E0,1E0,1E0,2E0,7E0,5.2E1,1.199E3,8E1,1.8E1,6E0,4E0,1.8E1,1.6E1,1E1,8E0,8E0,5E0,3E0,1E0,6E0,2E0,5E0,4E0,2E0,3E0,4E0,2E1,3.2E1,1.77E2,1.022E3,5E1,3E1,1.5E1,3E0,3E0,3E0,2E0,2E0,1.5E1,3E0,2E0,1.4E1,1E0,9E0,2E0,6E0,5E0,3E0,4E0,1E0,2E0,1E0,2E0,4E0,1E0,1E0,3E0,2E0,1.8E1,2E0,2.4E1,8E0],"tree_param":{"num_deleted":"0","num_feature":"8","num_nodes":"87","size_leaf_vector":"1"}},{"base_weights":[1.765462E2,-4.861899E2,2.3630562E3,-6.4250745E2,6.398723E3,-4.46887E3,2.9194592E3,-1.0438044E3,2.1336626E3,2.5440437E3,1.8181201E4,-7.126226E3,8.1172705E3,5.165119E3,9.7366077E2,-3.8554548E3,-6.97698E2,1.9644531E4,1.469307E3,7.084941E3,-6.901185E3,1.170457E3,1.0440538E4,-1.2465188E4,-3.1850195E3,3.9936611E3,2.1658073E2,3.119549E3,1.3674322E4,2.4973605E2,9.28623E3,-3.1291719E3,-1.5317593E4,-1.3252295E3,7.068164E2,2.6392102E3,9.454979E3,3.7880747E3,-2.1896934E3,1.0508319E4,7.690495E2,-6.936719E1,-3.6023123E3,-1.028776E3,1.1652235E3,-6.5226353E3,-6.6528257E3,1.4316371E3,-1.508457E4,4.487672E2,-3.5130588E2,9.171611E3,6.905993E2,8.236665E3,2.6238883E4,-2.9359944E3,3.8355623E3,-1.2958662E3,2.4048655E3,-5.5688716E3,1.3634532E2,-2.8658698E2,-2.0080259E3,1.3326508E3,-4.2201514E2,1.5904554E3,-2.7734553E3,-2.3744014E3,9.613682E2,5.84933E3,1.5463534E3,-7.0616345E2,2.4575532E3,-6.080203E2,3.776E2,-8.504766E1,-3.7790158E2,-4.5273364E3,1.102953E3,-4.3488242E2,1.2222828E3,-6.4848267E3,6.764977E2,1.5552395E3,8.07475E3,-2.0246835E3,8.2774194E2,4.716195E3,-1.7669667E3,2.4935125E3,9.248797E3,-4.8231575E1,-4.1621323E3,3.1211633E3,5.600306E2],"categories":[],"categories_nodes":[],"categories_segments":[],"categories_sizes":[],"default_left":[0,0,0,0,0,0,0,0,0,0,0,0,0,0,0,0,0,0,0,0,0,0,0,0,0,0,0,0,0,0,0,0,0,0,0,0,0,0,0,0,0,0,0,0,0,0,0,0,0,0,0,0,0,0,0,0,0,0,0,0,0,0,0,0,0,0,0,0,0,0,0,0,0,0,0,0,0,0,0,0,0,0,0,0,0,0,0,0,0,0,0,0,0,0,0],"id":13,"left_children":[1,3,5,7,9,11,13,15,17,19,21,23,25,27,29,31,33,35,37,39,41,43,-1,45,47,-1,49,51,53,55,-1,57,59,61,63,-1,-1,65,67,69,71,73,-1,75,-1,77,-1,79,81,-1,-1,83,85,87,89,91,93,-1,-1,-1,-1,-1,-1,-1,-1,-1,-1,-1,-1,-1,-1,-1,-1,-1,-1,-1,-1,-1,-1,-1,-1,-1,-1,-1,-1,-1,-1,-1,-1,-1,-1,-1,-1,-1,-1],"loss_changes":[2.1182533E9,1.2116442E9,1.3054907E9,1.2254746E9,1.0891881E9,9.274378E8,1.3713951E9,9.315152E8,1.5881846E9,9.066907E8,1.6556376E9,4.23221E8,2.023346E8,2.4986432E9,3.6818785E9,8.2616755E8,7.553953E8,3.6662822E8,1.1536849E9,2.946222E8,2.4337485E8,2.7867388E7,0E0,3.7472115E8,7.907016E8,0E0,7.0772295E6,1.7429847E9,1.6968888E9,1.9189815E9,0E0,1.3613533E9,3.1554854E8,1.1692623E9,2.098369E9,0E0,0E0,1.686153E9,1.662108E9,3.3264845E8,1.583677E8,1.2948783E7,0E0,1.59142E5,0E0,6.6722125E8,0E0,8.9661096E7,5.0175885E8,0E0,0E0,2.2661256E9,1.3420749E9,2.3127736E9,4.0210483E8,2.699344E9,1.00217946E9,0E0,0E0,0E0,0E0,0E0,0E0,0E0,0E0,0E0,0E0,0E0,0E0,0E0,0E0,0E0,0E0,0E0,0E0,0E0,0E0,0E0,0E0,0E0,0E0,0E0,0E0,0E0,0E0,0E0,0E0,0E0,0E0,0E0,0E0,0E0,0E0,0E0,0E0],"parents":[2147483647,0,0,1,1,2,2,3,3,4,4,5,5,6,6,7,7,8,8,9,9,10,10,11,11,12,12,13,13,14,14,15,15,16,16,17,17,18,18,19,19,20,20,21,21,23,23,24,24,26,26,27,27,28,28,29,29,31,31,32,32,33,33,34,34,37,37,38,38,39,39,40,40,41,41,43,43,45,45,47,47,48,48,51,51,52,52,53,53,54,54,55,55,56,56],"right_children":[2,4,6,8,10,12,14,16,18,20,22,24,26,28,30,32,34,36,38,40,42,44,-1,46,48,-1,50,52,54,56,-1,58,60,62,64,-1,-1,66,68,70,72,74,-1,76,-1,78,-1,80,82,-1,-1,84,86,88,90,92,94,-1,-1,-1,-1,-1,-1,-1,-1,-1,-1,-1,-1,-1,-1,-1,-1,-1,-1,-1,-1,-1,-1,-1,-1,-1,-1,-1,-1,-1,-1,-1,-1,-1,-1,-1,-1,-1,-1],"split_conditions":[9.1220975E-1,1.2165976E0,-1.9961146E0,2.260179E-1,-3.6909853E-3,1.6503069E0,4.7522474E-2,-9.341298E-1,2.3744322E-1,1.6503069E0,1.6503069E0,3.1172463E-1,-2.9566162E0,1.6503069E0,1.5500714E0,-2.173095E-2,7.529071E-1,-2.007493E-2,6.1317563E-1,-2.007493E-2,-1.2165231E-1,1.2497183E0,1.0440538E4,-1.3698629E-1,2.9907978E-1,3.9936611E3,-2.592288E0,-7.3752636E-1,1.1834768E0,1.3747946E0,9.28623E3,-1.3949184E-1,6.004949E-1,1.272992E-1,1.017873E0,2.6392102E3,9.454979E3,1.5500714E0,1.08913E0,1.2497183E0,6.004949E-1,2.09811E0,-3.6023123E3,1.3747946E0,1.1652235E3,1.5276563E0,-6.6528257E3,-3.6909853E-3,-2.2279599E0,4.487672E2,-3.5130588E2,-1.0024923E0,9.0492226E-2,1.1172353E0,-9.288859E-2,8.8539004E-1,8.5226935E-1,-1.2958662E3,2.4048655E3,-5.5688716E3,1.3634532E2,-2.8658698E2,-2.0080259E3,1.3326508E3,-4.2201514E2,1.5904554E3,-2.7734553E3,-2.3744014E3,9.613682E2,5.84933E3,1.5463534E3,-7.0616345E2,2.4575532E3,-6.080203E2,3.776E2,-8.504766E1,-3.7790158E2,-4.5273364E3,1.102953E3,-4.3488242E2,1.2222828E3,-6.4848267E3,6.764977E2,1.5552395E3,8.07475E3,-2.0246835E3,8.2774194E2,4.716195E3,-1.7669667E3,2.4935125E3,9.248797E3,-4.8231575E1,-4.1621323E3,3.1211633E3,5.600306E2],"split_indices":[3,0,0,5,5,2,5,3,5,2,2,2,0,2,6,5,0,6,5,6,5,0,0,5,5,0,0,0,0,1,0,5,4,5,0,0,0,6,5,0,4,1,0,1,0,3,0,5,0,0,0,0,0,0,5,0,0,0,0,0,0,0,0,0,0,0,0,0,0,0,0,0,0,0,0,0,0,0,0,0,0,0,0,0,0,0,0,0,0,0,0,0,0,0,0],"split_type":[0,0,0,0,0,0,0,0,0,0,0,0,0,0,0,0,0,0,0,0,0,0,0,0,0,0,0,0,0,0,0,0,0,0,0,0,0,0,0,0,0,0,0,0,0,0,0,0,0,0,0,0,0,0,0,0,0,0,0,0,0,0,0,0,0,0,0,0,0,0,0,0,0,0,0,0,0,0,0,0,0,0,0,0,0,0,0,0,0,0,0,0,0,0,0],"sum_hessian":[1.46E3,1.121E3,3.39E2,1.097E3,2.4E1,2.5E1,3.14E2,9.59E2,1.38E2,1.9E1,5E0,2.1E1,4E0,1.45E2,1.69E2,1.04E2,8.55E2,4E0,1.34E2,1.3E1,6E0,3E0,2E0,8E0,1.3E1,2E0,2E0,1.18E2,2.7E1,1.66E2,3E0,9.9E1,5E0,5.91E2,2.64E2,3E0,1E0,8.2E1,5.2E1,8E0,5E0,3E0,3E0,2E0,1E0,6E0,2E0,1E1,3E0,1E0,1E0,3.3E1,8.5E1,2E1,7E0,8.8E1,7.8E1,9E1,9E0,4E0,1E0,5.54E2,3.7E1,9.5E1,1.69E2,7.4E1,8E0,2.5E1,2.7E1,2E0,6E0,4E0,1E0,1E0,2E0,1E0,1E0,3E0,3E0,5E0,5E0,2E0,1E0,2.8E1,5E0,1.8E1,6.7E1,1.3E1,7E0,2E0,5E0,7.1E1,1.7E1,1.7E1,6.1E1],"tree_param":{"num_deleted":"0","num_feature":"8","num_nodes":"95","size_leaf_vector":"1"}},{"base_weights":[1.5173001E2,-5.466217E1,4.8097515E3,-1.670083E2,7.3306865E3,1.9120646E4,2.9350012E3,-3.2120862E3,3.7851643E1,3.2188594E3,1.9844762E4,5.139008E3,8.496638E3,4.9353774E3,-2.4303738E4,-2.5953982E3,-9.889177E3,-2.7753074E3,2.5295787E2,5.5607607E3,-3.5138562E3,7.6112065E3,-3.3884064E2,5.7305316E2,2.2238252E3,3.0201816E3,1.5330832E4,-1.0908176E4,-2.4493782E3,-5.8575674E3,-1.356013E3,1.5619922E2,-1.1710927E4,-4.223012E3,2.320409E3,8.041281E1,3.4819094E3,-3.8885418E1,9.0654E3,-4.4936953E3,6.0825E1,5.5219434E3,-5.441963E3,-2.0246313E3,2.3815494E4,-2.0421769E3,-3.8015253E2,2.9932114E2,-1.4784631E3,-4.2092275E3,-1.4142532E3,-5.4247644E2,-3.5787285E3,1.9185338E3,-1.5301119E3,8.412535E1,-1.1205387E3,3.5172961E3,9.2638855E0,9.078244E2,-2.3045579E3,1.3703993E3,4.511522E3,-1.5328611E3,-3.969258E2,8.290519E2,8.069569E3,-4.824958E3,3.1632454E3,1.0130293E4,4.5214614E3],"categories":[],"categories_nodes":[],"categories_segments":[],"categories_sizes":[],"default_left":[0,0,0,0,0,0,0,0,0,0,0,0,0,0,0,0,0,0,0,0,0,0,0,0,0,0,0,0,0,0,0,0,0,0,0,0,0,0,0,0,0,0,0,0,0,0,0,0,0,0,0,0,0,0,0,0,0,0,0,0,0,0,0,0,0,0,0,0,0,0,0],"id":14,"left_children":[1,3,5,7,9,11,13,15,17,19,21,23,-1,25,27,29,31,33,35,37,39,-1,-1,-1,-1,41,43,-1,-1,45,47,-1,49,51,53,55,57,59,61,63,-1,65,67,-1,69,-1,-1,-1,-1,-1,-1,-1,-1,-1,-1,-1,-1,-1,-1,-1,-1,-1,-1,-1,-1,-1,-1,-1,-1,-1,-1],"loss_changes":[1.4048379E9,1.1628257E9,1.6073009E9,8.6098554E8,1.0166926E9,7.550149E8,3.1712612E9,3.3257197E8,7.837377E8,2.8758477E8,6.081656E8,1.5206448E7,0E0,1.0088928E9,4.8147942E8,3.1954688E8,1.388464E8,6.884915E8,6.699589E8,2.554742E8,1.911948E7,0E0,0E0,0E0,0E0,1.0038826E9,1.659429E9,0E0,0E0,8.728179E7,5.0940058E8,0E0,3.124416E7,1.3182282E9,6.676046E8,8.7330195E8,1.7347711E9,1.637987E8,1.462087E8,1.050008E6,0E0,2.0484438E9,2.0408143E9,0E0,1.3196544E7,0E0,0E0,0E0,0E0,0E0,0E0,0E0,0E0,0E0,0E0,0E0,0E0,0E0,0E0,0E0,0E0,0E0,0E0,0E0,0E0,0E0,0E0,0E0,0E0,0E0,0E0],"parents":[2147483647,0,0,1,1,2,2,3,3,4,4,5,5,6,6,7,7,8,8,9,9,10,10,11,11,13,13,14,14,15,15,16,16,17,17,18,18,19,19,20,20,25,25,26,26,29,29,30,30,32,32,33,33,34,34,35,35,36,36,37,37,38,38,39,39,41,41,42,42,44,44],"right_children":[2,4,6,8,10,12,14,16,18,20,22,24,-1,26,28,30,32,34,36,38,40,-1,-1,-1,-1,42,44,-1,-1,46,48,-1,50,52,54,56,58,60,62,64,-1,66,68,-1,70,-1,-1,-1,-1,-1,-1,-1,-1,-1,-1,-1,-1,-1,-1,-1,-1,-1,-1,-1,-1,-1,-1,-1,-1,-1,-1],"split_conditions":[2.09811E0,2.7585492E0,8.5226935E-1,-6.796886E-1,2.892167E-1,3.5545817E-1,7.04077E-1,1.3747946E0,2.6381257E-1,2.1522164E0,1.1834768E0,-2.4266844E0,8.496638E3,2.7585492E0,2.1522164E0,2.4250736E-2,5.210619E-1,1.334676E-2,1.1834768E0,-1.5986657E0,1.6503069E0,7.6112065E3,-3.3884064E2,5.7305316E2,2.2238252E3,4.0280956E-1,1.418314E-1,-1.0908176E4,-2.4493782E3,2.9676324E-1,1.0841146E0,1.5619922E2,2.9676324E-1,-1.6354513E-1,1.418314E-1,1.150356E0,-1.8328886E-1,-1.8636316E0,-7.1836114E-2,1.8985446E-1,6.0825E1,3.1852284E-1,1.1834768E0,-2.0246313E3,1.150356E0,-2.0421769E3,-3.8015253E2,2.9932114E2,-1.4784631E3,-4.2092275E3,-1.4142532E3,-5.4247644E2,-3.5787285E3,1.9185338E3,-1.5301119E3,8.412535E1,-1.1205387E3,3.5172961E3,9.2638855E0,9.078244E2,-2.3045579E3,1.3703993E3,4.511522E3,-1.5328611E3,-3.969258E2,8.290519E2,8.069569E3,-4.824958E3,3.1632454E3,1.0130293E4,4.5214614E3],"split_indices":[1,3,0,5,0,0,5,1,7,4,0,0,0,3,4,0,0,5,0,0,2,0,0,0,0,5,5,0,0,3,0,0,3,5,5,0,5,0,1,0,0,5,0,0,0,0,0,0,0,0,0,0,0,0,0,0,0,0,0,0,0,0,0,0,0,0,0,0,0,0,0],"split_type":[0,0,0,0,0,0,0,0,0,0,0,0,0,0,0,0,0,0,0,0,0,0,0,0,0,0,0,0,0,0,0,0,0,0,0,0,0,0,0,0,0,0,0,0,0,0,0,0,0,0,0,0,0,0,0,0,0,0,0,0,0,0,0,0,0,0,0,0,0,0,0],"sum_hessian":[1.46E3,1.399E3,6.1E1,1.379E3,2E1,6E0,5.5E1,8.6E1,1.293E3,1.6E1,4E0,3E0,3E0,5.2E1,3E0,8E1,6E0,9.1E1,1.202E3,1.2E1,4E0,3E0,1E0,2E0,1E0,4.5E1,7E0,1E0,2E0,2.1E1,5.9E1,1E0,5E0,7.1E1,2E1,1.142E3,6E1,5E0,7E0,3E0,1E0,3.5E1,1E1,2E0,5E0,1.7E1,4E0,3.6E1,2.3E1,3E0,2E0,5.5E1,1.6E1,1.3E1,7E0,1.086E3,5.6E1,1.7E1,4.3E1,4E0,1E0,5E0,2E0,2E0,1E0,3.2E1,3E0,6E0,4E0,1E0,4E0],"tree_param":{"num_deleted":"0","num_feature":"8","num_nodes":"71","size_leaf_vector":"1"}},{"base_weights":[1.1810509E2,-3.0430304E2,1.5117045E3,-6.5096436E2,1.3995881E3,-2.1937817E3,2.0555754E3,-4.8508234E2,-1.762762E4,-1.4266763E4,1.8132019E3,-4.621953E3,2.3443901E3,8.483045E3,1.2474167E3,-1.799613E3,8.543421E1,3.5915156E3,-3.532123E4,-2.7967031E3,-6.2943706E3,7.42989E3,1.4291122E3,-9.55196E3,-1.0785065E3,-2.535458E3,6.421545E3,1.3726754E4,3.8610043E2,5.5016156E2,8.559834E3,9.3370404E2,-3.347092E3,1.0473099E3,-1.5900588E3,4.978859E3,-1.142611E3,-1.3585896E4,6.808688E2,2.7799924E2,-1.5365157E3,-1.0129075E3,4.616399E3,9.034E2,-1.2365752E4,5.0967715E3,-5.471572E3,1.2089073E3,-4.3119023E3,3.8374844E3,2.7741519E3,-6.760043E3,1.773972E4,-7.554372E3,4.3177266E3,-2.6278745E2,1.0726623E4,2.5786576E4,2.3420408E3,-4.566821E1,8.273124E3,-1.0576248E3,4.2591777E3,5.0302426E2,-1.0911118E3,1.5765465E3,-7.0616565E2,-3.1958489E3,-3.2411816E1,5.171656E3,7.700767E2,-1.0733691E3,-5.288402E3,-1.0027219E3,2.0339565E3,-3.5875483E3,-4.6324924E2,-7.513922E1,9.714672E2,-3.6730313E2,1.3855258E3,-5.0609222E2,-3.2968877E3,6.6553345E3,-6.75525E2,9.995469E1,-3.8771406E3,2.1140703E3,-3.0367266E3,7.3848425E2,-9.947205E2,1.1614885E3,5.1454316E3,2.94E2,9.165567E3,2.0380352E3,-6.653847E3],"categories":[],"categories_nodes":[],"categories_segments":[],"categories_sizes":[],"default_left":[0,0,0,0,0,0,0,0,0,0,0,0,0,0,0,0,0,0,0,0,0,0,0,0,0,0,0,0,0,0,0,0,0,0,0,0,0,0,0,0,0,0,0,0,0,0,0,0,0,0,0,0,0,0,0,0,0,0,0,0,0,0,0,0,0,0,0,0,0,0,0,0,0,0,0,0,0,0,0,0,0,0,0,0,0,0,0,0,0,0,0,0,0,0,0,0,0],"id":15,"left_children":[1,3,5,7,9,11,13,15,17,19,21,23,25,27,29,31,33,35,37,39,-1,-1,41,43,45,47,49,51,53,55,57,59,61,63,65,-1,-1,-1,-1,-1,-1,67,69,-1,71,73,75,77,-1,-1,79,81,83,85,87,89,91,93,95,-1,-1,-1,-1,-1,-1,-1,-1,-1,-1,-1,-1,-1,-1,-1,-1,-1,-1,-1,-1,-1,-1,-1,-1,-1,-1,-1,-1,-1,-1,-1,-1,-1,-1,-1,-1,-1,-1],"loss_changes":[8.6050355E8,6.6364634E8,6.897137E8,2.6188908E9,1.2570341E9,4.956919E8,1.5321596E9,6.9386816E8,3.5058452E9,3.2639866E8,1.6043909E9,4.9630547E8,3.3461594E8,1.3958149E9,1.3464255E9,1.1874552E9,1.04276934E9,5.443974E8,1.9757583E9,3.071677E7,0E0,0E0,1.4368247E9,4.6144333E8,5.1619856E8,3.7196854E8,1.7362147E8,1.7641779E9,4.6968323E8,2.0131442E9,2.4031903E9,2.9553516E9,6.100658E8,1.217934E9,1.2463094E9,0E0,0E0,0E0,0E0,0E0,0E0,9.1474906E8,2.0253029E9,0E0,3.993682E8,1.3629174E8,2.6177878E8,2.1541744E7,0E0,0E0,5.7274588E7,6.728864E7,1.5605156E9,2.1606432E8,4.654285E8,1.8879068E9,7.2635354E8,6.7932595E8,2.1154719E9,0E0,0E0,0E0,0E0,0E0,0E0,0E0,0E0,0E0,0E0,0E0,0E0,0E0,0E0,0E0,0E0,0E0,0E0,0E0,0E0,0E0,0E0,0E0,0E0,0E0,0E0,0E0,0E0,0E0,0E0,0E0,0E0,0E0,0E0,0E0,0E0,0E0,0E0],"parents":[2147483647,0,0,1,1,2,2,3,3,4,4,5,5,6,6,7,7,8,8,9,9,10,10,11,11,12,12,13,13,14,14,15,15,16,16,17,17,18,18,19,19,22,22,23,23,24,24,25,25,26,26,27,27,28,28,29,29,30,30,31,31,32,32,33,33,34,34,41,41,42,42,44,44,45,45,46,46,47,47,50,50,51,51,52,52,53,53,54,54,55,55,56,56,57,57,58,58],"right_children":[2,4,6,8,10,12,14,16,18,20,22,24,26,28,30,32,34,36,38,40,-1,-1,42,44,46,48,50,52,54,56,58,60,62,64,66,-1,-1,-1,-1,-1,-1,68,70,-1,72,74,76,78,-1,-1,80,82,84,86,88,90,92,94,96,-1,-1,-1,-1,-1,-1,-1,-1,-1,-1,-1,-1,-1,-1,-1,-1,-1,-1,-1,-1,-1,-1,-1,-1,-1,-1,-1,-1,-1,-1,-1,-1,-1,-1,-1,-1,-1,-1],"split_conditions":[9.1220975E-1,1.486465E-1,-1.698028E0,1.3742164E-1,-1.6649072E0,2.143103E0,-7.3752636E-1,-5.0568116E-1,6.5147924E-1,-1.7311487E0,-1.565545E0,1.0266893E0,-7.1836114E-2,6.5147924E-1,6.267056E-1,-1.0668391E0,-2.007493E-2,-1.2012168E0,2.09811E0,-1.8305109E0,-6.2943706E3,7.42989E3,2.9676324E-1,-2.2279599E0,2.6381257E-1,8.300107E-2,6.004949E-1,2.6381257E-1,-1.6317865E0,2.7585492E0,9.936184E-1,5.343557E-2,3.7039378E0,3.359161E-2,-1.4135298E-1,4.978859E3,-1.142611E3,-1.3585896E4,6.808688E2,2.7799924E2,-1.5365157E3,-7.044056E-1,6.004949E-1,9.034E2,-3.2971326E-1,-3.1884613E0,-2.857254E0,2.6381257E-1,-4.3119023E3,3.8374844E3,2.6381257E-1,1.5276563E0,2.143103E0,-2.9333267E-1,5.3600466E-1,6.8468876E-2,1.418314E-1,-7.1836114E-2,1.1834768E0,-4.566821E1,8.273124E3,-1.0576248E3,4.2591777E3,5.0302426E2,-1.0911118E3,1.5765465E3,-7.0616565E2,-3.1958489E3,-3.2411816E1,5.171656E3,7.700767E2,-1.0733691E3,-5.288402E3,-1.0027219E3,2.0339565E3,-3.5875483E3,-4.6324924E2,-7.513922E1,9.714672E2,-3.6730313E2,1.3855258E3,-5.0609222E2,-3.2968877E3,6.6553345E3,-6.75525E2,9.995469E1,-3.8771406E3,2.1140703E3,-3.0367266E3,7.3848425E2,-9.947205E2,1.1614885E3,5.1454316E3,2.94E2,9.165567E3,2.0380352E3,-6.653847E3],"split_indices":[3,5,0,5,0,3,0,0,1,0,0,6,1,1,5,6,6,0,1,0,0,0,3,0,7,5,4,7,0,3,5,5,4,5,0,0,0,0,0,0,0,0,4,0,5,0,0,7,0,0,7,3,3,5,5,5,5,1,0,0,0,0,0,0,0,0,0,0,0,0,0,0,0,0,0,0,0,0,0,0,0,0,0,0,0,0,0,0,0,0,0,0,0,0,0,0,0],"split_type":[0,0,0,0,0,0,0,0,0,0,0,0,0,0,0,0,0,0,0,0,0,0,0,0,0,0,0,0,0,0,0,0,0,0,0,0,0,0,0,0,0,0,0,0,0,0,0,0,0,0,0,0,0,0,0,0,0,0,0,0,0,0,0,0,0,0,0,0,0,0,0,0,0,0,0,0,0,0,0,0,0,0,0,0,0,0,0,0,0,0,0,0,0,0,0,0,0],"sum_hessian":[1.46E3,1.121E3,3.39E2,9.32E2,1.89E2,4.3E1,2.96E2,9.24E2,8E0,4E0,1.85E2,2.8E1,1.5E1,3.2E1,2.64E2,2.79E2,6.45E2,4E0,4E0,2E0,2E0,2E0,1.83E2,1.1E1,1.7E1,7E0,8E0,1.9E1,1.3E1,2.42E2,2.2E1,1.01E2,1.78E2,4.1E2,2.35E2,1E0,3E0,3E0,1E0,1E0,1E0,1.04E2,7.9E1,2E0,9E0,7E0,1E1,6E0,1E0,2E0,6E0,3E0,1.6E1,4E0,9E0,2.25E2,1.7E1,5E0,1.7E1,9.8E1,3E0,1.77E2,1E0,3.62E2,4.8E1,2.3E1,2.12E2,8E0,9.6E1,1E1,6.9E1,4E0,5E0,1E0,6E0,3E0,7E0,4E0,2E0,2E0,4E0,2E0,1E0,1.3E1,3E0,2E0,2E0,8E0,1E0,1.19E2,1.06E2,9E0,8E0,1E0,4E0,1.5E1,2E0],"tree_param":{"num_deleted":"0","num_feature":"8","num_nodes":"97","size_leaf_vector":"1"}},{"base_weights":[8.7167885E1,-4.8997318E2,9.671824E2,-5.743512E2,6.933661E3,9.619501E3,5.2654456E2,-6.236651E2,1.030734E4,-9.754266E3,1.2324926E4,7.899329E2,2.132643E4,9.5297925E2,-1.0864269E4,-1.0419574E3,3.9652512E2,4.506568E3,4.1564487E3,3.5457422E2,-4.743994E3,5.0756123E3,3.5014688E3,6.2590635E3,-1.3587794E4,4.7604375E3,2.631949E4,6.543198E2,6.3161475E3,-1.7367344E4,1.0612617E3,-9.2323615E2,-1.1272735E4,-3.1107747E3,1.2078965E3,3.6203018E3,-1.5923462E3,4.572604E2,1.8951141E3,-7.27566E3,1.1047047E4,-5.439298E3,6.8775E2,-3.2270862E2,7.0643804E3,9.366018E3,6.1116665E3,5.4929156E2,5.424288E3,3.2782078E3,1.690889E4,-7.1021147E3,-6.8686045E3,-1.8828229E3,1.9787032E3,-3.8054947E2,3.6969354E2,-9.546108E2,-6.299897E3,-1.0908314E3,3.2369602E3,1.2027352E3,-3.473405E2,8.4167816E2,-6.3591095E2,5.7314064E1,-2.9484736E3,1.290872E3,6.02626E3,6.208196E2,2.5581516E3,-1.6559532E3,4.406203E3,5.50599E2,-2.6872705E2,2.866403E3,-2.264046E3,6.8073447E3,1.0688751E3,-2.629919E3,1.8289453E2,7.166555E2,-9.644785E2],"categories":[],"categories_nodes":[],"categories_segments":[],"categories_sizes":[],"default_left":[0,0,0,0,0,0,0,0,0,0,0,0,0,0,0,0,0,0,0,0,0,0,0,0,0,0,0,0,0,0,0,0,0,0,0,0,0,0,0,0,0,0,0,0,0,0,0,0,0,0,0,0,0,0,0,0,0,0,0,0,0,0,0,0,0,0,0,0,0,0,0,0,0,0,0,0,0,0,0,0,0,0,0],"id":16,"left_children":[1,3,5,7,9,11,13,15,17,19,21,23,25,27,29,31,33,35,-1,-1,-1,-1,37,39,41,43,45,47,49,51,53,55,57,59,61,-1,-1,63,-1,65,67,-1,-1,-1,69,-1,71,73,-1,75,77,79,-1,81,-1,-1,-1,-1,-1,-1,-1,-1,-1,-1,-1,-1,-1,-1,-1,-1,-1,-1,-1,-1,-1,-1,-1,-1,-1,-1,-1,-1,-1],"loss_changes":[7.4250477E8,5.570859E8,2.202395E9,4.7543312E8,1.01991085E9,2.877433E9,2.6916595E9,3.721017E8,1.9874944E7,2.1747846E8,2.6502387E8,1.4218193E9,8.6728755E8,8.496058E8,1.5694835E9,7.40222E8,7.265711E8,2.8667587E8,0E0,0E0,0E0,0E0,3.1396292E7,9.22827E8,4.0230182E8,6.1383576E7,7.004616E8,9.1619456E8,8.456123E8,5.7509606E8,1.4276878E8,4.570312E8,4.840615E8,3.897494E8,1.3763982E9,0E0,0E0,2.4101734E7,0E0,7.811526E7,5.232681E8,0E0,0E0,0E0,4.273744E6,0E0,3.8031606E8,9.3827136E8,0E0,1.6347954E9,3.821724E8,8.235171E7,0E0,4.1821904E7,0E0,0E0,0E0,0E0,0E0,0E0,0E0,0E0,0E0,0E0,0E0,0E0,0E0,0E0,0E0,0E0,0E0,0E0,0E0,0E0,0E0,0E0,0E0,0E0,0E0,0E0,0E0,0E0,0E0],"parents":[2147483647,0,0,1,1,2,2,3,3,4,4,5,5,6,6,7,7,8,8,9,9,10,10,11,11,12,12,13,13,14,14,15,15,16,16,17,17,22,22,23,23,24,24,25,25,26,26,27,27,28,28,29,29,30,30,31,31,32,32,33,33,34,34,37,37,39,39,40,40,44,44,46,46,47,47,49,49,50,50,51,51,53,53],"right_children":[2,4,6,8,10,12,14,16,18,20,22,24,26,28,30,32,34,36,-1,-1,-1,-1,38,40,42,44,46,48,50,52,54,56,58,60,62,-1,-1,64,-1,66,68,-1,-1,-1,70,-1,72,74,-1,76,78,80,-1,82,-1,-1,-1,-1,-1,-1,-1,-1,-1,-1,-1,-1,-1,-1,-1,-1,-1,-1,-1,-1,-1,-1,-1,-1,-1,-1,-1,-1,-1],"split_conditions":[4.548204E-1,3.5161068E0,6.2042415E-1,3.7039378E0,-7.3752636E-1,-2.007493E-2,1.5500714E0,1.0266893E0,-1.7447373E-1,-2.0292354E0,-1.7447373E-1,2.9676324E-1,6.5147924E-1,2.1522164E0,1.0509938E0,4.2169967E-1,-4.9237362E-1,-5.0568116E-1,4.1564487E3,3.5457422E2,-4.743994E3,5.0756123E3,1.567337E-1,-5.1783E-1,1.9224308E-1,4.8794115E-1,4.0280956E-1,3.3739958E0,2.8214252E0,2.0734534E0,-9.288859E-2,2.260179E-1,6.5147924E-1,3.2233742E-1,-6.1819762E-2,3.6203018E3,-1.5923462E3,2.4250736E-2,1.8951141E3,6.004949E-1,6.5147924E-1,-5.439298E3,6.8775E2,-3.2270862E2,-3.1868327E-1,9.366018E3,5.210619E-1,-5.5305332E-2,5.424288E3,2.4566142E-1,1.017873E0,1.6503069E0,-6.8686045E3,-7.1836114E-2,1.9787032E3,-3.8054947E2,3.6969354E2,-9.546108E2,-6.299897E3,-1.0908314E3,3.2369602E3,1.2027352E3,-3.473405E2,8.4167816E2,-6.3591095E2,5.7314064E1,-2.9484736E3,1.290872E3,6.02626E3,6.208196E2,2.5581516E3,-1.6559532E3,4.406203E3,5.50599E2,-2.6872705E2,2.866403E3,-2.264046E3,6.8073447E3,1.0688751E3,-2.629919E3,1.8289453E2,7.166555E2,-9.644785E2],"split_indices":[0,5,0,4,0,6,6,6,0,0,0,3,1,4,0,0,5,0,0,0,0,0,0,5,5,0,5,3,1,6,5,5,1,0,5,0,0,0,0,4,1,0,0,0,3,0,0,5,0,5,0,2,0,1,0,0,0,0,0,0,0,0,0,0,0,0,0,0,0,0,0,0,0,0,0,0,0,0,0,0,0,0,0],"split_type":[0,0,0,0,0,0,0,0,0,0,0,0,0,0,0,0,0,0,0,0,0,0,0,0,0,0,0,0,0,0,0,0,0,0,0,0,0,0,0,0,0,0,0,0,0,0,0,0,0,0,0,0,0,0,0,0,0,0,0,0,0,0,0,0,0,0,0,0,0,0,0,0,0,0,0,0,0,0,0,0,0,0,0],"sum_hessian":[1.46E3,8.82E2,5.78E2,8.73E2,9E0,2.7E1,5.51E2,8.7E2,3E0,2E0,7E0,1.6E1,1.1E1,5.32E2,1.9E1,6.17E2,2.53E2,2E0,1E0,1E0,1E0,4E0,3E0,1.2E1,4E0,3E0,8E0,5.05E2,2.7E1,1.2E1,7E0,6.11E2,6E0,4.7E1,2.06E2,1E0,1E0,2E0,1E0,3E0,9E0,3E0,1E0,1E0,2E0,6E0,2E0,5.03E2,2E0,2.2E1,5E0,5E0,7E0,5E0,2E0,5.27E2,8.4E1,4E0,2E0,4.6E1,1E0,9.4E1,1.12E2,1E0,1E0,1E0,2E0,6E0,3E0,1E0,1E0,1E0,1E0,2.66E2,2.37E2,1.4E1,8E0,3E0,2E0,4E0,1E0,1E0,4E0],"tree_param":{"num_deleted":"0","num_feature":"8","num_nodes":"83","size_leaf_vector":"1"}},{"base_weights":[7.878297E1,-6.868942E2,7.018667E2,7.776317E1,-9.57018E3,5.5658257E3,2.3893726E2,3.1733398E2,-7.752537E3,-1.0597E4,3.2200657E3,-7.712539E3,6.4874316E3,-1.0415474E3,1.3203494E3,-8.054475E0,3.3487256E3,-2.0103118E3,-1.3271395E4,-1.1420606E4,1.7296289E3,2.0914502E3,-5.9477197E3,7.1992285E3,-1.0860055E4,-1.0041588E4,-6.216641E2,8.095829E3,5.659463E2,-1.3268385E2,3.946326E3,1.1970039E4,1.0268889E3,-2.2928625E3,1.4954833E3,-4.948713E3,-1.5351223E3,-1.3090152E4,-3.934272E3,2.4664336E3,-9.5243756E2,4.7551836E3,1.4234166E4,-7.188668E2,-4.168158E3,-6.2910825E3,-2.2946584E4,2.202842E3,-1.5878308E3,1.1648092E4,6.6676227E2,-4.7454846E2,4.111953E3,1.1838871E2,-8.893794E2,6.8669116E2,9.22798E3,-4.2731855E3,1.1020842E3,-1.9516829E2,1.3721188E3,-2.9656196E3,-6.017308E3,4.039923E3,-3.994644E3,1.8761672E3,-5.1454926E2,1.2841533E3,7.9260664E3,-3.7663665E3,-9.469756E2,-6.109266E2,-9.715036E3,-1.1876376E0,4.2257764E3,-2.0384891E3,-2.869853E2,3.8776838E3,-3.2351157E3,1.7819302E3,-3.00378E3,-7.274381E3,1.376077E1,8.9876E3,6.133566E2],"categories":[],"categories_nodes":[],"categories_segments":[],"categories_sizes":[],"default_left":[0,0,0,0,0,0,0,0,0,0,0,0,0,0,0,0,0,0,0,0,0,0,0,0,0,0,0,0,0,0,0,0,0,0,0,0,0,0,0,0,0,0,0,0,0,0,0,0,0,0,0,0,0,0,0,0,0,0,0,0,0,0,0,0,0,0,0,0,0,0,0,0,0,0,0,0,0,0,0,0,0,0,0,0,0],"id":17,"left_children":[1,3,5,7,9,11,13,15,17,19,-1,21,23,25,27,29,31,33,35,37,39,-1,-1,41,43,45,47,49,51,53,-1,55,57,-1,59,-1,-1,61,63,-1,-1,65,67,-1,-1,69,71,73,75,77,79,81,83,-1,-1,-1,-1,-1,-1,-1,-1,-1,-1,-1,-1,-1,-1,-1,-1,-1,-1,-1,-1,-1,-1,-1,-1,-1,-1,-1,-1,-1,-1,-1,-1],"loss_changes":[6.974974E8,4.456736E9,1.813516E9,1.1373866E9,1.1978547E9,9.0665395E8,1.02192237E9,5.800183E8,5.437496E8,5.273682E8,0E0,1.027568E9,8.931451E8,1.2710481E9,2.0399953E9,8.744546E8,1.1286931E9,2.0889592E8,1.5221914E8,5.3594214E8,1.5345576E8,0E0,0E0,1.0327112E9,4.3740064E7,5.8164506E8,8.876755E8,1.0478336E9,1.3338975E9,7.896348E8,0E0,2.1124664E9,1.9115414E9,0E0,4.9217852E7,0E0,0E0,6.502328E8,1.811706E9,0E0,0E0,4.858871E8,1.8276408E9,0E0,0E0,2.1559738E8,5.2603302E8,2.1766134E9,7.889081E8,9.131274E8,8.478451E8,3.465298E9,4.3205253E9,0E0,0E0,0E0,0E0,0E0,0E0,0E0,0E0,0E0,0E0,0E0,0E0,0E0,0E0,0E0,0E0,0E0,0E0,0E0,0E0,0E0,0E0,0E0,0E0,0E0,0E0,0E0,0E0,0E0,0E0,0E0,0E0],"parents":[2147483647,0,0,1,1,2,2,3,3,4,4,5,5,6,6,7,7,8,8,9,9,11,11,12,12,13,13,14,14,15,15,16,16,17,17,18,18,19,19,20,20,23,23,24,24,25,25,26,26,27,27,28,28,29,29,31,31,32,32,34,34,37,37,38,38,41,41,42,42,45,45,46,46,47,47,48,48,49,49,50,50,51,51,52,52],"right_children":[2,4,6,8,10,12,14,16,18,20,-1,22,24,26,28,30,32,34,36,38,40,-1,-1,42,44,46,48,50,52,54,-1,56,58,-1,60,-1,-1,62,64,-1,-1,66,68,-1,-1,70,72,74,76,78,80,82,84,-1,-1,-1,-1,-1,-1,-1,-1,-1,-1,-1,-1,-1,-1,-1,-1,-1,-1,-1,-1,-1,-1,-1,-1,-1,-1,-1,-1,-1,-1,-1,-1],"split_conditions":[-1.4199738E-1,-1.6354513E-1,-1.06919676E-1,2.0734534E0,2.0734534E0,-1.3336997E0,5.737148E-2,-1.8860063E-1,6.004949E-1,1.5276563E0,3.2200657E3,-1.4993035E0,1.5276563E0,-9.288859E-2,-5.811155E-2,2.09811E0,-1.1349753E0,-2.7383596E-1,-2.6787627E-1,1.1172353E0,-9.6937156E-1,2.0914502E3,-5.9477197E3,-1.179441E-1,-2.407152E-1,-9.479281E-2,-1.0356131E0,1.3747946E0,1.5276563E0,-2.3319943E-1,3.946326E3,-1.7973902E0,-6.050434E-1,-2.2928625E3,-2.522416E-1,-4.948713E3,-1.5351223E3,1.2361297E-1,1.1834768E0,2.4664336E3,-9.5243756E2,1.0509938E0,6.004949E-1,-7.188668E2,-4.168158E3,-9.6937156E-1,-4.725604E-1,-1.3668205E0,-7.3752636E-1,1.5276563E0,-9.188637E-2,-5.179756E-2,4.5272214E-3,1.1838871E2,-8.893794E2,6.8669116E2,9.22798E3,-4.2731855E3,1.1020842E3,-1.9516829E2,1.3721188E3,-2.9656196E3,-6.017308E3,4.039923E3,-3.994644E3,1.8761672E3,-5.1454926E2,1.2841533E3,7.9260664E3,-3.7663665E3,-9.469756E2,-6.109266E2,-9.715036E3,-1.1876376E0,4.2257764E3,-2.0384891E3,-2.869853E2,3.8776838E3,-3.2351157E3,1.7819302E3,-3.00378E3,-7.274381E3,1.376077E1,8.9876E3,6.133566E2],"split_indices":[5,5,5,6,6,0,0,5,4,3,0,0,3,5,5,1,0,0,5,0,0,0,0,5,0,5,0,1,3,5,0,0,0,0,5,0,0,0,0,0,0,0,4,0,0,0,0,0,0,3,5,5,5,0,0,0,0,0,0,0,0,0,0,0,0,0,0,0,0,0,0,0,0,0,0,0,0,0,0,0,0,0,0,0,0],"split_type":[0,0,0,0,0,0,0,0,0,0,0,0,0,0,0,0,0,0,0,0,0,0,0,0,0,0,0,0,0,0,0,0,0,0,0,0,0,0,0,0,0,0,0,0,0,0,0,0,0,0,0,0,0,0,0,0,0,0,0,0,0,0,0,0,0,0,0,0,0,0,0,0,0,0,0,0,0,0,0,0,0,0,0,0,0],"sum_hessian":[1.46E3,6.55E2,8.05E2,6.04E2,5.1E1,6.9E1,7.36E2,5.87E2,1.7E1,4.9E1,2E0,4E0,6.5E1,3.37E2,3.99E2,5.31E2,5.6E1,9E0,8E0,4.6E1,3E0,2E0,2E0,6.3E1,2E0,1.4E1,3.23E2,3.9E1,3.6E2,5.27E2,4E0,1.1E1,4.5E1,3E0,6E0,5E0,3E0,3.7E1,9E0,1E0,2E0,4.8E1,1.5E1,1E0,1E0,1.2E1,2E0,8.2E1,2.41E2,2.6E1,1.3E1,2.79E2,8.1E1,4.45E2,8.2E1,8E0,3E0,6E0,3.9E1,4E0,2E0,2.7E1,1E1,3E0,6E0,3.9E1,9E0,9E0,6E0,3E0,9E0,1E0,1E0,7E1,1.2E1,2.5E1,2.16E2,2.5E1,1E0,9E0,4E0,5E0,2.74E2,5E0,7.6E1],"tree_param":{"num_deleted":"0","num_feature":"8","num_nodes":"85","size_leaf_vector":"1"}},{"base_weights":[4.7320683E1,-5.701183E1,2.402453E3,-7.528708E1,3.8265095E3,1.2731631E3,1.2730297E4,-1.0116946E2,8.976484E3,1.168783E4,-1.8126501E2,2.901422E2,1.48895E4,-1.9087773E2,2.0895518E3,4.0219062E3,3.576033E3,5.1948956E2,4.815381E3,1.276459E3,-1.7628637E4,5.231639E3,7.038469E2,-2.318854E3,-5.9515648E1,-3.8941507E2,7.653678E3,3.120305E3,-1.3104469E3,3.238594E1,2.0138438E2,-2.2324182E3,6.300508E3,-7.0760693E3,3.6921097E1,-3.4460916E2,-2.275828E3,9.8091736E1,-1.8361714E2,2.990061E2,-1.5361495E3,1.0530319E4,1.1233202E3,2.999211E3,-1.3767236E3,-4.570245E3,3.790892E3],"categories":[],"categories_nodes":[],"categories_segments":[],"categories_sizes":[],"default_left":[0,0,0,0,0,0,0,0,0,0,0,0,0,0,0,0,0,0,0,0,0,0,0,0,0,0,0,0,0,0,0,0,0,0,0,0,0,0,0,0,0,0,0,0,0,0,0],"id":18,"left_children":[1,3,5,7,-1,9,11,13,15,17,19,-1,21,23,25,27,-1,29,-1,31,33,-1,-1,35,37,39,41,-1,-1,-1,-1,43,45,-1,-1,-1,-1,-1,-1,-1,-1,-1,-1,-1,-1,-1,-1],"loss_changes":[3.5912928E8,3.2876086E8,7.0690624E8,3.2866778E8,0E0,8.655196E8,1.3799398E8,2.7474886E8,1.0396128E7,3.327881E8,1.3196083E9,0E0,1.1896947E8,3.7499843E8,7.6161114E8,2.0599666E8,0E0,1.1493656E5,0E0,8.6024634E8,4.259799E8,0E0,0E0,4.720385E8,2.703418E8,2.6085632E8,1.6926582E9,0E0,0E0,0E0,0E0,8.817009E8,2.9212884E9,0E0,0E0,0E0,0E0,0E0,0E0,0E0,0E0,0E0,0E0,0E0,0E0,0E0,0E0],"parents":[2147483647,0,0,1,1,2,2,3,3,5,5,6,6,7,7,8,8,9,9,10,10,12,12,13,13,14,14,15,15,17,17,19,19,20,20,23,23,24,24,25,25,26,26,31,31,32,32],"right_children":[2,4,6,8,-1,10,12,14,16,18,20,-1,22,24,26,28,-1,30,-1,32,34,-1,-1,36,38,40,42,-1,-1,-1,-1,44,46,-1,-1,-1,-1,-1,-1,-1,-1,-1,-1,-1,-1,-1,-1],"split_conditions":[2.09811E0,2.0518272E1,1.2497183E0,3.7039378E0,3.8265095E3,8.5226935E-1,9.1220975E-1,2.143103E0,-1.7447373E-1,-2.4266844E0,7.04077E-1,2.901422E2,2.8214252E0,-1.0268576E0,2.892167E-1,-5.0568116E-1,3.576033E3,-2.592288E0,4.815381E3,3.0579466E-1,1.2165976E0,5.231639E3,7.038469E2,-7.1836114E-2,-5.5305332E-2,2.1522164E0,-2.007493E-2,3.120305E3,-1.3104469E3,3.238594E1,2.0138438E2,-2.6787627E-1,1.1172353E0,-7.0760693E3,3.6921097E1,